digraph Tree {
node [shape=box] ;
0 [label="X[4] <= 303.5\nentropy = 1.0\nsamples = 31887\nvalue = [15942, 15945]"] ;
1 [label="X[3] <= 10.5\nentropy = 0.9692\nsamples = 12879\nvalue = [7765, 5114]"] ;
0 -> 1 [labeldistance=2.5, labelangle=45, headlabel="True"] ;
2 [label="X[0] <= 75.1\nentropy = 0.9092\nsamples = 5488\nvalue = [3707, 1781]"] ;
1 -> 2 ;
3 [label="X[0] <= 28.885\nentropy = 0.8852\nsamples = 4142\nvalue = [2886, 1256]"] ;
2 -> 3 ;
4 [label="X[5] <= 0.5\nentropy = 0.9803\nsamples = 601\nvalue = [350, 251]"] ;
3 -> 4 ;
5 [label="X[4] <= 296.5\nentropy = 0.8981\nsamples = 35\nvalue = [11, 24]"] ;
4 -> 5 ;
6 [label="X[4] <= 267.0\nentropy = 0.9383\nsamples = 31\nvalue = [11, 20]"] ;
5 -> 6 ;
7 [label="X[6] <= 0.5\nentropy = 0.7219\nsamples = 20\nvalue = [4, 16]"] ;
6 -> 7 ;
8 [label="X[4] <= 203.5\nentropy = 0.3712\nsamples = 14\nvalue = [1, 13]"] ;
7 -> 8 ;
9 [label="X[0] <= 11.345\nentropy = 0.9183\nsamples = 3\nvalue = [1, 2]"] ;
8 -> 9 ;
10 [label="entropy = 0.0\nsamples = 1\nvalue = [1, 0]"] ;
9 -> 10 ;
11 [label="entropy = 0.0\nsamples = 2\nvalue = [0, 2]"] ;
9 -> 11 ;
12 [label="entropy = 0.0\nsamples = 11\nvalue = [0, 11]"] ;
8 -> 12 ;
13 [label="X[2] <= 0.165\nentropy = 1.0\nsamples = 6\nvalue = [3, 3]"] ;
7 -> 13 ;
14 [label="entropy = 0.0\nsamples = 3\nvalue = [3, 0]"] ;
13 -> 14 ;
15 [label="entropy = 0.0\nsamples = 3\nvalue = [0, 3]"] ;
13 -> 15 ;
16 [label="X[4] <= 272.5\nentropy = 0.9457\nsamples = 11\nvalue = [7, 4]"] ;
6 -> 16 ;
17 [label="entropy = 0.0\nsamples = 4\nvalue = [4, 0]"] ;
16 -> 17 ;
18 [label="X[4] <= 280.0\nentropy = 0.9852\nsamples = 7\nvalue = [3, 4]"] ;
16 -> 18 ;
19 [label="entropy = 0.0\nsamples = 2\nvalue = [0, 2]"] ;
18 -> 19 ;
20 [label="X[0] <= 11.3\nentropy = 0.971\nsamples = 5\nvalue = [3, 2]"] ;
18 -> 20 ;
21 [label="entropy = 0.0\nsamples = 2\nvalue = [2, 0]"] ;
20 -> 21 ;
22 [label="X[4] <= 295.5\nentropy = 0.9183\nsamples = 3\nvalue = [1, 2]"] ;
20 -> 22 ;
23 [label="entropy = 0.0\nsamples = 2\nvalue = [0, 2]"] ;
22 -> 23 ;
24 [label="entropy = 0.0\nsamples = 1\nvalue = [1, 0]"] ;
22 -> 24 ;
25 [label="entropy = 0.0\nsamples = 4\nvalue = [0, 4]"] ;
5 -> 25 ;
26 [label="X[0] <= 5.835\nentropy = 0.9716\nsamples = 566\nvalue = [339, 227]"] ;
4 -> 26 ;
27 [label="entropy = 0.0\nsamples = 5\nvalue = [0, 5]"] ;
26 -> 27 ;
28 [label="X[0] <= 15.315\nentropy = 0.9684\nsamples = 561\nvalue = [339, 222]"] ;
26 -> 28 ;
29 [label="X[1] <= 4.165\nentropy = 0.9194\nsamples = 299\nvalue = [199, 100]"] ;
28 -> 29 ;
30 [label="X[6] <= 0.5\nentropy = 0.9776\nsamples = 131\nvalue = [77, 54]"] ;
29 -> 30 ;
31 [label="X[0] <= 10.095\nentropy = 0.9998\nsamples = 55\nvalue = [27, 28]"] ;
30 -> 31 ;
32 [label="X[7] <= 0.5\nentropy = 0.8865\nsamples = 23\nvalue = [7, 16]"] ;
31 -> 32 ;
33 [label="X[0] <= 9.96\nentropy = 0.8454\nsamples = 22\nvalue = [6, 16]"] ;
32 -> 33 ;
34 [label="entropy = 0.0\nsamples = 6\nvalue = [0, 6]"] ;
33 -> 34 ;
35 [label="X[2] <= 3.335\nentropy = 0.9544\nsamples = 16\nvalue = [6, 10]"] ;
33 -> 35 ;
36 [label="X[4] <= 266.5\nentropy = 0.8631\nsamples = 14\nvalue = [4, 10]"] ;
35 -> 36 ;
37 [label="X[8] <= 0.5\nentropy = 0.971\nsamples = 10\nvalue = [4, 6]"] ;
36 -> 37 ;
38 [label="X[1] <= 0.165\nentropy = 1.0\nsamples = 8\nvalue = [4, 4]"] ;
37 -> 38 ;
39 [label="X[9] <= 0.5\nentropy = 0.9183\nsamples = 6\nvalue = [2, 4]"] ;
38 -> 39 ;
40 [label="X[10] <= 0.5\nentropy = 0.7219\nsamples = 5\nvalue = [1, 4]"] ;
39 -> 40 ;
41 [label="entropy = 0.0\nsamples = 4\nvalue = [0, 4]"] ;
40 -> 41 ;
42 [label="entropy = 0.0\nsamples = 1\nvalue = [1, 0]"] ;
40 -> 42 ;
43 [label="entropy = 0.0\nsamples = 1\nvalue = [1, 0]"] ;
39 -> 43 ;
44 [label="entropy = 0.0\nsamples = 2\nvalue = [2, 0]"] ;
38 -> 44 ;
45 [label="entropy = 0.0\nsamples = 2\nvalue = [0, 2]"] ;
37 -> 45 ;
46 [label="entropy = 0.0\nsamples = 4\nvalue = [0, 4]"] ;
36 -> 46 ;
47 [label="entropy = 0.0\nsamples = 2\nvalue = [2, 0]"] ;
35 -> 47 ;
48 [label="entropy = 0.0\nsamples = 1\nvalue = [1, 0]"] ;
32 -> 48 ;
49 [label="X[1] <= 1.835\nentropy = 0.9544\nsamples = 32\nvalue = [20, 12]"] ;
31 -> 49 ;
50 [label="X[4] <= 232.5\nentropy = 1.0\nsamples = 24\nvalue = [12, 12]"] ;
49 -> 50 ;
51 [label="X[8] <= 0.5\nentropy = 0.5436\nsamples = 8\nvalue = [7, 1]"] ;
50 -> 51 ;
52 [label="entropy = 0.0\nsamples = 7\nvalue = [7, 0]"] ;
51 -> 52 ;
53 [label="entropy = 0.0\nsamples = 1\nvalue = [0, 1]"] ;
51 -> 53 ;
54 [label="X[4] <= 291.5\nentropy = 0.896\nsamples = 16\nvalue = [5, 11]"] ;
50 -> 54 ;
55 [label="X[2] <= 0.165\nentropy = 0.7496\nsamples = 14\nvalue = [3, 11]"] ;
54 -> 55 ;
56 [label="X[0] <= 10.595\nentropy = 0.9183\nsamples = 9\nvalue = [3, 6]"] ;
55 -> 56 ;
57 [label="entropy = 0.0\nsamples = 1\nvalue = [1, 0]"] ;
56 -> 57 ;
58 [label="X[4] <= 254.5\nentropy = 0.8113\nsamples = 8\nvalue = [2, 6]"] ;
56 -> 58 ;
59 [label="X[4] <= 238.0\nentropy = 1.0\nsamples = 4\nvalue = [2, 2]"] ;
58 -> 59 ;
60 [label="entropy = 0.0\nsamples = 2\nvalue = [0, 2]"] ;
59 -> 60 ;
61 [label="entropy = 0.0\nsamples = 2\nvalue = [2, 0]"] ;
59 -> 61 ;
62 [label="entropy = 0.0\nsamples = 4\nvalue = [0, 4]"] ;
58 -> 62 ;
63 [label="entropy = 0.0\nsamples = 5\nvalue = [0, 5]"] ;
55 -> 63 ;
64 [label="entropy = 0.0\nsamples = 2\nvalue = [2, 0]"] ;
54 -> 64 ;
65 [label="entropy = 0.0\nsamples = 8\nvalue = [8, 0]"] ;
49 -> 65 ;
66 [label="X[4] <= 57.0\nentropy = 0.9268\nsamples = 76\nvalue = [50, 26]"] ;
30 -> 66 ;
67 [label="entropy = 0.0\nsamples = 2\nvalue = [0, 2]"] ;
66 -> 67 ;
68 [label="X[0] <= 9.885\nentropy = 0.909\nsamples = 74\nvalue = [50, 24]"] ;
66 -> 68 ;
69 [label="entropy = 0.0\nsamples = 4\nvalue = [4, 0]"] ;
68 -> 69 ;
70 [label="X[9] <= 0.5\nentropy = 0.9275\nsamples = 70\nvalue = [46, 24]"] ;
68 -> 70 ;
71 [label="entropy = 0.0\nsamples = 3\nvalue = [3, 0]"] ;
70 -> 71 ;
72 [label="X[4] <= 107.5\nentropy = 0.9412\nsamples = 67\nvalue = [43, 24]"] ;
70 -> 72 ;
73 [label="entropy = 0.0\nsamples = 3\nvalue = [3, 0]"] ;
72 -> 73 ;
74 [label="X[4] <= 173.5\nentropy = 0.9544\nsamples = 64\nvalue = [40, 24]"] ;
72 -> 74 ;
75 [label="entropy = 0.0\nsamples = 2\nvalue = [0, 2]"] ;
74 -> 75 ;
76 [label="X[1] <= 3.835\nentropy = 0.9383\nsamples = 62\nvalue = [40, 22]"] ;
74 -> 76 ;
77 [label="X[1] <= 2.5\nentropy = 0.9529\nsamples = 59\nvalue = [37, 22]"] ;
76 -> 77 ;
78 [label="X[0] <= 14.045\nentropy = 0.896\nsamples = 48\nvalue = [33, 15]"] ;
77 -> 78 ;
79 [label="X[0] <= 13.595\nentropy = 0.9403\nsamples = 42\nvalue = [27, 15]"] ;
78 -> 79 ;
80 [label="X[0] <= 11.095\nentropy = 0.9097\nsamples = 40\nvalue = [27, 13]"] ;
79 -> 80 ;
81 [label="X[3] <= 9.5\nentropy = 0.9597\nsamples = 34\nvalue = [21, 13]"] ;
80 -> 81 ;
82 [label="X[8] <= 0.5\nentropy = 0.8709\nsamples = 24\nvalue = [17, 7]"] ;
81 -> 82 ;
83 [label="X[4] <= 261.5\nentropy = 0.4138\nsamples = 12\nvalue = [11, 1]"] ;
82 -> 83 ;
84 [label="entropy = 0.0\nsamples = 11\nvalue = [11, 0]"] ;
83 -> 84 ;
85 [label="entropy = 0.0\nsamples = 1\nvalue = [0, 1]"] ;
83 -> 85 ;
86 [label="X[4] <= 265.0\nentropy = 1.0\nsamples = 12\nvalue = [6, 6]"] ;
82 -> 86 ;
87 [label="X[0] <= 10.215\nentropy = 0.8113\nsamples = 8\nvalue = [2, 6]"] ;
86 -> 87 ;
88 [label="entropy = 0.0\nsamples = 5\nvalue = [0, 5]"] ;
87 -> 88 ;
89 [label="X[0] <= 10.705\nentropy = 0.9183\nsamples = 3\nvalue = [2, 1]"] ;
87 -> 89 ;
90 [label="entropy = 0.0\nsamples = 2\nvalue = [2, 0]"] ;
89 -> 90 ;
91 [label="entropy = 0.0\nsamples = 1\nvalue = [0, 1]"] ;
89 -> 91 ;
92 [label="entropy = 0.0\nsamples = 4\nvalue = [4, 0]"] ;
86 -> 92 ;
93 [label="X[8] <= 0.5\nentropy = 0.971\nsamples = 10\nvalue = [4, 6]"] ;
81 -> 93 ;
94 [label="entropy = 0.0\nsamples = 4\nvalue = [0, 4]"] ;
93 -> 94 ;
95 [label="X[4] <= 296.0\nentropy = 0.9183\nsamples = 6\nvalue = [4, 2]"] ;
93 -> 95 ;
96 [label="X[0] <= 10.045\nentropy = 0.9183\nsamples = 3\nvalue = [1, 2]"] ;
95 -> 96 ;
97 [label="X[4] <= 294.0\nentropy = 1.0\nsamples = 2\nvalue = [1, 1]"] ;
96 -> 97 ;
98 [label="entropy = 0.0\nsamples = 1\nvalue = [1, 0]"] ;
97 -> 98 ;
99 [label="entropy = 0.0\nsamples = 1\nvalue = [0, 1]"] ;
97 -> 99 ;
100 [label="entropy = 0.0\nsamples = 1\nvalue = [0, 1]"] ;
96 -> 100 ;
101 [label="entropy = 0.0\nsamples = 3\nvalue = [3, 0]"] ;
95 -> 101 ;
102 [label="entropy = 0.0\nsamples = 6\nvalue = [6, 0]"] ;
80 -> 102 ;
103 [label="entropy = 0.0\nsamples = 2\nvalue = [0, 2]"] ;
79 -> 103 ;
104 [label="entropy = 0.0\nsamples = 6\nvalue = [6, 0]"] ;
78 -> 104 ;
105 [label="X[4] <= 195.5\nentropy = 0.9457\nsamples = 11\nvalue = [4, 7]"] ;
77 -> 105 ;
106 [label="entropy = 0.0\nsamples = 2\nvalue = [2, 0]"] ;
105 -> 106 ;
107 [label="X[3] <= 8.5\nentropy = 0.7642\nsamples = 9\nvalue = [2, 7]"] ;
105 -> 107 ;
108 [label="X[4] <= 215.0\nentropy = 0.971\nsamples = 5\nvalue = [2, 3]"] ;
107 -> 108 ;
109 [label="entropy = 0.0\nsamples = 2\nvalue = [0, 2]"] ;
108 -> 109 ;
110 [label="X[0] <= 13.21\nentropy = 0.9183\nsamples = 3\nvalue = [2, 1]"] ;
108 -> 110 ;
111 [label="entropy = 0.0\nsamples = 2\nvalue = [2, 0]"] ;
110 -> 111 ;
112 [label="entropy = 0.0\nsamples = 1\nvalue = [0, 1]"] ;
110 -> 112 ;
113 [label="entropy = 0.0\nsamples = 4\nvalue = [0, 4]"] ;
107 -> 113 ;
114 [label="entropy = 0.0\nsamples = 3\nvalue = [3, 0]"] ;
76 -> 114 ;
115 [label="X[1] <= 9.165\nentropy = 0.8469\nsamples = 168\nvalue = [122, 46]"] ;
29 -> 115 ;
116 [label="X[1] <= 7.835\nentropy = 0.57\nsamples = 52\nvalue = [45, 7]"] ;
115 -> 116 ;
117 [label="X[1] <= 5.165\nentropy = 0.679\nsamples = 39\nvalue = [32, 7]"] ;
116 -> 117 ;
118 [label="entropy = 0.0\nsamples = 9\nvalue = [9, 0]"] ;
117 -> 118 ;
119 [label="X[1] <= 6.835\nentropy = 0.7838\nsamples = 30\nvalue = [23, 7]"] ;
117 -> 119 ;
120 [label="X[0] <= 13.105\nentropy = 0.9799\nsamples = 12\nvalue = [7, 5]"] ;
119 -> 120 ;
121 [label="X[0] <= 10.065\nentropy = 0.8813\nsamples = 10\nvalue = [7, 3]"] ;
120 -> 121 ;
122 [label="X[4] <= 200.0\nentropy = 0.8113\nsamples = 4\nvalue = [1, 3]"] ;
121 -> 122 ;
123 [label="entropy = 0.0\nsamples = 1\nvalue = [1, 0]"] ;
122 -> 123 ;
124 [label="entropy = 0.0\nsamples = 3\nvalue = [0, 3]"] ;
122 -> 124 ;
125 [label="entropy = 0.0\nsamples = 6\nvalue = [6, 0]"] ;
121 -> 125 ;
126 [label="entropy = 0.0\nsamples = 2\nvalue = [0, 2]"] ;
120 -> 126 ;
127 [label="X[4] <= 22.5\nentropy = 0.5033\nsamples = 18\nvalue = [16, 2]"] ;
119 -> 127 ;
128 [label="entropy = 0.0\nsamples = 1\nvalue = [0, 1]"] ;
127 -> 128 ;
129 [label="X[1] <= 7.5\nentropy = 0.3228\nsamples = 17\nvalue = [16, 1]"] ;
127 -> 129 ;
130 [label="entropy = 0.0\nsamples = 12\nvalue = [12, 0]"] ;
129 -> 130 ;
131 [label="X[4] <= 209.5\nentropy = 0.7219\nsamples = 5\nvalue = [4, 1]"] ;
129 -> 131 ;
132 [label="entropy = 0.0\nsamples = 3\nvalue = [3, 0]"] ;
131 -> 132 ;
133 [label="X[4] <= 251.5\nentropy = 1.0\nsamples = 2\nvalue = [1, 1]"] ;
131 -> 133 ;
134 [label="entropy = 0.0\nsamples = 1\nvalue = [0, 1]"] ;
133 -> 134 ;
135 [label="entropy = 0.0\nsamples = 1\nvalue = [1, 0]"] ;
133 -> 135 ;
136 [label="entropy = 0.0\nsamples = 13\nvalue = [13, 0]"] ;
116 -> 136 ;
137 [label="X[2] <= 2.165\nentropy = 0.9211\nsamples = 116\nvalue = [77, 39]"] ;
115 -> 137 ;
138 [label="X[0] <= 12.23\nentropy = 0.971\nsamples = 15\nvalue = [6, 9]"] ;
137 -> 138 ;
139 [label="X[3] <= 6.5\nentropy = 0.8113\nsamples = 12\nvalue = [3, 9]"] ;
138 -> 139 ;
140 [label="entropy = 0.0\nsamples = 1\nvalue = [1, 0]"] ;
139 -> 140 ;
141 [label="X[9] <= 0.5\nentropy = 0.684\nsamples = 11\nvalue = [2, 9]"] ;
139 -> 141 ;
142 [label="X[3] <= 8.0\nentropy = 1.0\nsamples = 4\nvalue = [2, 2]"] ;
141 -> 142 ;
143 [label="entropy = 0.0\nsamples = 1\nvalue = [1, 0]"] ;
142 -> 143 ;
144 [label="X[1] <= 16.5\nentropy = 0.9183\nsamples = 3\nvalue = [1, 2]"] ;
142 -> 144 ;
145 [label="entropy = 0.0\nsamples = 1\nvalue = [1, 0]"] ;
144 -> 145 ;
146 [label="entropy = 0.0\nsamples = 2\nvalue = [0, 2]"] ;
144 -> 146 ;
147 [label="entropy = 0.0\nsamples = 7\nvalue = [0, 7]"] ;
141 -> 147 ;
148 [label="entropy = 0.0\nsamples = 3\nvalue = [3, 0]"] ;
138 -> 148 ;
149 [label="X[0] <= 11.7\nentropy = 0.8776\nsamples = 101\nvalue = [71, 30]"] ;
137 -> 149 ;
150 [label="X[2] <= 33.665\nentropy = 0.7025\nsamples = 63\nvalue = [51, 12]"] ;
149 -> 150 ;
151 [label="X[2] <= 12.835\nentropy = 0.6436\nsamples = 61\nvalue = [51, 10]"] ;
150 -> 151 ;
152 [label="X[4] <= 192.5\nentropy = 0.7467\nsamples = 47\nvalue = [37, 10]"] ;
151 -> 152 ;
153 [label="entropy = 0.0\nsamples = 9\nvalue = [9, 0]"] ;
152 -> 153 ;
154 [label="X[4] <= 201.5\nentropy = 0.8315\nsamples = 38\nvalue = [28, 10]"] ;
152 -> 154 ;
155 [label="entropy = 0.0\nsamples = 3\nvalue = [0, 3]"] ;
154 -> 155 ;
156 [label="X[2] <= 7.835\nentropy = 0.7219\nsamples = 35\nvalue = [28, 7]"] ;
154 -> 156 ;
157 [label="X[0] <= 10.96\nentropy = 0.8256\nsamples = 27\nvalue = [20, 7]"] ;
156 -> 157 ;
158 [label="X[0] <= 10.725\nentropy = 0.9024\nsamples = 22\nvalue = [15, 7]"] ;
157 -> 158 ;
159 [label="X[6] <= 0.5\nentropy = 0.8113\nsamples = 20\nvalue = [15, 5]"] ;
158 -> 159 ;
160 [label="X[2] <= 6.83\nentropy = 0.9612\nsamples = 13\nvalue = [8, 5]"] ;
159 -> 160 ;
161 [label="X[9] <= 0.5\nentropy = 0.9183\nsamples = 12\nvalue = [8, 4]"] ;
160 -> 161 ;
162 [label="X[4] <= 227.5\nentropy = 1.0\nsamples = 8\nvalue = [4, 4]"] ;
161 -> 162 ;
163 [label="X[0] <= 10.295\nentropy = 0.8113\nsamples = 4\nvalue = [3, 1]"] ;
162 -> 163 ;
164 [label="entropy = 0.0\nsamples = 3\nvalue = [3, 0]"] ;
163 -> 164 ;
165 [label="entropy = 0.0\nsamples = 1\nvalue = [0, 1]"] ;
163 -> 165 ;
166 [label="X[2] <= 3.165\nentropy = 0.8113\nsamples = 4\nvalue = [1, 3]"] ;
162 -> 166 ;
167 [label="entropy = 0.0\nsamples = 1\nvalue = [1, 0]"] ;
166 -> 167 ;
168 [label="entropy = 0.0\nsamples = 3\nvalue = [0, 3]"] ;
166 -> 168 ;
169 [label="entropy = 0.0\nsamples = 4\nvalue = [4, 0]"] ;
161 -> 169 ;
170 [label="entropy = 0.0\nsamples = 1\nvalue = [0, 1]"] ;
160 -> 170 ;
171 [label="entropy = 0.0\nsamples = 7\nvalue = [7, 0]"] ;
159 -> 171 ;
172 [label="entropy = 0.0\nsamples = 2\nvalue = [0, 2]"] ;
158 -> 172 ;
173 [label="entropy = 0.0\nsamples = 5\nvalue = [5, 0]"] ;
157 -> 173 ;
174 [label="entropy = 0.0\nsamples = 8\nvalue = [8, 0]"] ;
156 -> 174 ;
175 [label="entropy = 0.0\nsamples = 14\nvalue = [14, 0]"] ;
151 -> 175 ;
176 [label="entropy = 0.0\nsamples = 2\nvalue = [0, 2]"] ;
150 -> 176 ;
177 [label="X[0] <= 12.08\nentropy = 0.998\nsamples = 38\nvalue = [20, 18]"] ;
149 -> 177 ;
178 [label="entropy = 0.0\nsamples = 6\nvalue = [0, 6]"] ;
177 -> 178 ;
179 [label="X[1] <= 11.335\nentropy = 0.9544\nsamples = 32\nvalue = [20, 12]"] ;
177 -> 179 ;
180 [label="entropy = 0.0\nsamples = 3\nvalue = [0, 3]"] ;
179 -> 180 ;
181 [label="X[1] <= 13.665\nentropy = 0.8936\nsamples = 29\nvalue = [20, 9]"] ;
179 -> 181 ;
182 [label="entropy = 0.0\nsamples = 7\nvalue = [7, 0]"] ;
181 -> 182 ;
183 [label="X[9] <= 0.5\nentropy = 0.976\nsamples = 22\nvalue = [13, 9]"] ;
181 -> 183 ;
184 [label="X[3] <= 6.5\nentropy = 0.7219\nsamples = 5\nvalue = [1, 4]"] ;
183 -> 184 ;
185 [label="entropy = 0.0\nsamples = 1\nvalue = [1, 0]"] ;
184 -> 185 ;
186 [label="entropy = 0.0\nsamples = 4\nvalue = [0, 4]"] ;
184 -> 186 ;
187 [label="X[2] <= 4.5\nentropy = 0.874\nsamples = 17\nvalue = [12, 5]"] ;
183 -> 187 ;
188 [label="entropy = 0.0\nsamples = 5\nvalue = [5, 0]"] ;
187 -> 188 ;
189 [label="X[0] <= 12.495\nentropy = 0.9799\nsamples = 12\nvalue = [7, 5]"] ;
187 -> 189 ;
190 [label="entropy = 0.0\nsamples = 2\nvalue = [0, 2]"] ;
189 -> 190 ;
191 [label="X[2] <= 5.335\nentropy = 0.8813\nsamples = 10\nvalue = [7, 3]"] ;
189 -> 191 ;
192 [label="entropy = 0.0\nsamples = 1\nvalue = [0, 1]"] ;
191 -> 192 ;
193 [label="X[0] <= 14.225\nentropy = 0.7642\nsamples = 9\nvalue = [7, 2]"] ;
191 -> 193 ;
194 [label="entropy = 0.0\nsamples = 5\nvalue = [5, 0]"] ;
193 -> 194 ;
195 [label="X[4] <= 256.0\nentropy = 1.0\nsamples = 4\nvalue = [2, 2]"] ;
193 -> 195 ;
196 [label="entropy = 0.0\nsamples = 2\nvalue = [2, 0]"] ;
195 -> 196 ;
197 [label="entropy = 0.0\nsamples = 2\nvalue = [0, 2]"] ;
195 -> 197 ;
198 [label="X[0] <= 28.275\nentropy = 0.9966\nsamples = 262\nvalue = [140, 122]"] ;
28 -> 198 ;
199 [label="X[4] <= 205.5\nentropy = 0.9931\nsamples = 246\nvalue = [135, 111]"] ;
198 -> 199 ;
200 [label="X[1] <= 40.165\nentropy = 0.9359\nsamples = 71\nvalue = [46, 25]"] ;
199 -> 200 ;
201 [label="X[1] <= 1.5\nentropy = 0.9652\nsamples = 64\nvalue = [39, 25]"] ;
200 -> 201 ;
202 [label="X[3] <= 9.0\nentropy = 0.5917\nsamples = 21\nvalue = [18, 3]"] ;
201 -> 202 ;
203 [label="X[0] <= 25.41\nentropy = 0.3095\nsamples = 18\nvalue = [17, 1]"] ;
202 -> 203 ;
204 [label="entropy = 0.0\nsamples = 15\nvalue = [15, 0]"] ;
203 -> 204 ;
205 [label="X[4] <= 187.5\nentropy = 0.9183\nsamples = 3\nvalue = [2, 1]"] ;
203 -> 205 ;
206 [label="entropy = 0.0\nsamples = 1\nvalue = [0, 1]"] ;
205 -> 206 ;
207 [label="entropy = 0.0\nsamples = 2\nvalue = [2, 0]"] ;
205 -> 207 ;
208 [label="X[1] <= 0.5\nentropy = 0.9183\nsamples = 3\nvalue = [1, 2]"] ;
202 -> 208 ;
209 [label="entropy = 0.0\nsamples = 2\nvalue = [0, 2]"] ;
208 -> 209 ;
210 [label="entropy = 0.0\nsamples = 1\nvalue = [1, 0]"] ;
208 -> 210 ;
211 [label="X[0] <= 16.615\nentropy = 0.9996\nsamples = 43\nvalue = [21, 22]"] ;
201 -> 211 ;
212 [label="entropy = 0.0\nsamples = 5\nvalue = [0, 5]"] ;
211 -> 212 ;
213 [label="X[0] <= 27.6\nentropy = 0.992\nsamples = 38\nvalue = [21, 17]"] ;
211 -> 213 ;
214 [label="X[0] <= 26.31\nentropy = 0.9994\nsamples = 35\nvalue = [18, 17]"] ;
213 -> 214 ;
215 [label="X[0] <= 24.745\nentropy = 0.9887\nsamples = 32\nvalue = [18, 14]"] ;
214 -> 215 ;
216 [label="X[4] <= 199.5\nentropy = 0.999\nsamples = 27\nvalue = [13, 14]"] ;
215 -> 216 ;
217 [label="X[3] <= 9.0\nentropy = 0.9183\nsamples = 18\nvalue = [6, 12]"] ;
216 -> 217 ;
218 [label="X[1] <= 19.83\nentropy = 0.7496\nsamples = 14\nvalue = [3, 11]"] ;
217 -> 218 ;
219 [label="entropy = 0.0\nsamples = 8\nvalue = [0, 8]"] ;
218 -> 219 ;
220 [label="X[4] <= 183.5\nentropy = 1.0\nsamples = 6\nvalue = [3, 3]"] ;
218 -> 220 ;
221 [label="entropy = 0.0\nsamples = 3\nvalue = [0, 3]"] ;
220 -> 221 ;
222 [label="entropy = 0.0\nsamples = 3\nvalue = [3, 0]"] ;
220 -> 222 ;
223 [label="X[2] <= 1.335\nentropy = 0.8113\nsamples = 4\nvalue = [3, 1]"] ;
217 -> 223 ;
224 [label="entropy = 0.0\nsamples = 3\nvalue = [3, 0]"] ;
223 -> 224 ;
225 [label="entropy = 0.0\nsamples = 1\nvalue = [0, 1]"] ;
223 -> 225 ;
226 [label="X[2] <= 2.335\nentropy = 0.7642\nsamples = 9\nvalue = [7, 2]"] ;
216 -> 226 ;
227 [label="X[1] <= 2.5\nentropy = 1.0\nsamples = 4\nvalue = [2, 2]"] ;
226 -> 227 ;
228 [label="entropy = 0.0\nsamples = 2\nvalue = [2, 0]"] ;
227 -> 228 ;
229 [label="entropy = 0.0\nsamples = 2\nvalue = [0, 2]"] ;
227 -> 229 ;
230 [label="entropy = 0.0\nsamples = 5\nvalue = [5, 0]"] ;
226 -> 230 ;
231 [label="entropy = 0.0\nsamples = 5\nvalue = [5, 0]"] ;
215 -> 231 ;
232 [label="entropy = 0.0\nsamples = 3\nvalue = [0, 3]"] ;
214 -> 232 ;
233 [label="entropy = 0.0\nsamples = 3\nvalue = [3, 0]"] ;
213 -> 233 ;
234 [label="entropy = 0.0\nsamples = 7\nvalue = [7, 0]"] ;
200 -> 234 ;
235 [label="X[4] <= 251.5\nentropy = 0.9998\nsamples = 175\nvalue = [89, 86]"] ;
199 -> 235 ;
236 [label="X[2] <= 18.33\nentropy = 0.9852\nsamples = 84\nvalue = [36, 48]"] ;
235 -> 236 ;
237 [label="X[1] <= 37.67\nentropy = 0.9943\nsamples = 79\nvalue = [36, 43]"] ;
236 -> 237 ;
238 [label="X[7] <= 0.5\nentropy = 0.9875\nsamples = 76\nvalue = [33, 43]"] ;
237 -> 238 ;
239 [label="X[1] <= 1.165\nentropy = 0.9809\nsamples = 74\nvalue = [31, 43]"] ;
238 -> 239 ;
240 [label="X[0] <= 27.925\nentropy = 0.8709\nsamples = 24\nvalue = [7, 17]"] ;
239 -> 240 ;
241 [label="X[4] <= 237.5\nentropy = 0.7732\nsamples = 22\nvalue = [5, 17]"] ;
240 -> 241 ;
242 [label="X[3] <= 8.5\nentropy = 0.9183\nsamples = 15\nvalue = [5, 10]"] ;
241 -> 242 ;
243 [label="X[0] <= 20.46\nentropy = 0.7793\nsamples = 13\nvalue = [3, 10]"] ;
242 -> 243 ;
244 [label="entropy = 0.0\nsamples = 5\nvalue = [0, 5]"] ;
243 -> 244 ;
245 [label="X[0] <= 22.695\nentropy = 0.9544\nsamples = 8\nvalue = [3, 5]"] ;
243 -> 245 ;
246 [label="entropy = 0.0\nsamples = 2\nvalue = [2, 0]"] ;
245 -> 246 ;
247 [label="X[1] <= 0.165\nentropy = 0.65\nsamples = 6\nvalue = [1, 5]"] ;
245 -> 247 ;
248 [label="entropy = 0.0\nsamples = 4\nvalue = [0, 4]"] ;
247 -> 248 ;
249 [label="X[3] <= 7.5\nentropy = 1.0\nsamples = 2\nvalue = [1, 1]"] ;
247 -> 249 ;
250 [label="entropy = 0.0\nsamples = 1\nvalue = [0, 1]"] ;
249 -> 250 ;
251 [label="entropy = 0.0\nsamples = 1\nvalue = [1, 0]"] ;
249 -> 251 ;
252 [label="entropy = 0.0\nsamples = 2\nvalue = [2, 0]"] ;
242 -> 252 ;
253 [label="entropy = 0.0\nsamples = 7\nvalue = [0, 7]"] ;
241 -> 253 ;
254 [label="entropy = 0.0\nsamples = 2\nvalue = [2, 0]"] ;
240 -> 254 ;
255 [label="X[1] <= 1.5\nentropy = 0.9988\nsamples = 50\nvalue = [24, 26]"] ;
239 -> 255 ;
256 [label="entropy = 0.0\nsamples = 3\nvalue = [3, 0]"] ;
255 -> 256 ;
257 [label="X[0] <= 27.955\nentropy = 0.9918\nsamples = 47\nvalue = [21, 26]"] ;
255 -> 257 ;
258 [label="X[8] <= 0.5\nentropy = 0.9968\nsamples = 45\nvalue = [21, 24]"] ;
257 -> 258 ;
259 [label="X[1] <= 2.5\nentropy = 0.9978\nsamples = 36\nvalue = [19, 17]"] ;
258 -> 259 ;
260 [label="entropy = 0.0\nsamples = 3\nvalue = [0, 3]"] ;
259 -> 260 ;
261 [label="X[2] <= 1.5\nentropy = 0.9834\nsamples = 33\nvalue = [19, 14]"] ;
259 -> 261 ;
262 [label="X[1] <= 14.0\nentropy = 0.7793\nsamples = 13\nvalue = [10, 3]"] ;
261 -> 262 ;
263 [label="X[2] <= 0.165\nentropy = 0.9544\nsamples = 8\nvalue = [5, 3]"] ;
262 -> 263 ;
264 [label="entropy = 0.0\nsamples = 2\nvalue = [2, 0]"] ;
263 -> 264 ;
265 [label="X[2] <= 0.5\nentropy = 1.0\nsamples = 6\nvalue = [3, 3]"] ;
263 -> 265 ;
266 [label="entropy = 0.0\nsamples = 2\nvalue = [0, 2]"] ;
265 -> 266 ;
267 [label="X[1] <= 12.335\nentropy = 0.8113\nsamples = 4\nvalue = [3, 1]"] ;
265 -> 267 ;
268 [label="entropy = 0.0\nsamples = 3\nvalue = [3, 0]"] ;
267 -> 268 ;
269 [label="entropy = 0.0\nsamples = 1\nvalue = [0, 1]"] ;
267 -> 269 ;
270 [label="entropy = 0.0\nsamples = 5\nvalue = [5, 0]"] ;
262 -> 270 ;
271 [label="X[4] <= 236.0\nentropy = 0.9928\nsamples = 20\nvalue = [9, 11]"] ;
261 -> 271 ;
272 [label="X[1] <= 8.165\nentropy = 0.971\nsamples = 15\nvalue = [9, 6]"] ;
271 -> 272 ;
273 [label="entropy = 0.0\nsamples = 2\nvalue = [0, 2]"] ;
272 -> 273 ;
274 [label="X[0] <= 16.385\nentropy = 0.8905\nsamples = 13\nvalue = [9, 4]"] ;
272 -> 274 ;
275 [label="entropy = 0.0\nsamples = 2\nvalue = [0, 2]"] ;
274 -> 275 ;
276 [label="X[0] <= 24.295\nentropy = 0.684\nsamples = 11\nvalue = [9, 2]"] ;
274 -> 276 ;
277 [label="entropy = 0.0\nsamples = 8\nvalue = [8, 0]"] ;
276 -> 277 ;
278 [label="X[0] <= 26.955\nentropy = 0.9183\nsamples = 3\nvalue = [1, 2]"] ;
276 -> 278 ;
279 [label="entropy = 0.0\nsamples = 2\nvalue = [0, 2]"] ;
278 -> 279 ;
280 [label="entropy = 0.0\nsamples = 1\nvalue = [1, 0]"] ;
278 -> 280 ;
281 [label="entropy = 0.0\nsamples = 5\nvalue = [0, 5]"] ;
271 -> 281 ;
282 [label="X[4] <= 244.0\nentropy = 0.7642\nsamples = 9\nvalue = [2, 7]"] ;
258 -> 282 ;
283 [label="entropy = 0.0\nsamples = 7\nvalue = [0, 7]"] ;
282 -> 283 ;
284 [label="entropy = 0.0\nsamples = 2\nvalue = [2, 0]"] ;
282 -> 284 ;
285 [label="entropy = 0.0\nsamples = 2\nvalue = [0, 2]"] ;
257 -> 285 ;
286 [label="entropy = 0.0\nsamples = 2\nvalue = [2, 0]"] ;
238 -> 286 ;
287 [label="entropy = 0.0\nsamples = 3\nvalue = [3, 0]"] ;
237 -> 287 ;
288 [label="entropy = 0.0\nsamples = 5\nvalue = [0, 5]"] ;
236 -> 288 ;
289 [label="X[4] <= 254.0\nentropy = 0.9803\nsamples = 91\nvalue = [53, 38]"] ;
235 -> 289 ;
290 [label="entropy = 0.0\nsamples = 4\nvalue = [4, 0]"] ;
289 -> 290 ;
291 [label="X[1] <= 1.835\nentropy = 0.9884\nsamples = 87\nvalue = [49, 38]"] ;
289 -> 291 ;
292 [label="X[2] <= 0.165\nentropy = 0.9745\nsamples = 32\nvalue = [13, 19]"] ;
291 -> 292 ;
293 [label="X[0] <= 17.55\nentropy = 0.9871\nsamples = 30\nvalue = [13, 17]"] ;
292 -> 293 ;
294 [label="entropy = 0.0\nsamples = 2\nvalue = [0, 2]"] ;
293 -> 294 ;
295 [label="X[10] <= 0.5\nentropy = 0.9963\nsamples = 28\nvalue = [13, 15]"] ;
293 -> 295 ;
296 [label="X[0] <= 21.215\nentropy = 1.0\nsamples = 26\nvalue = [13, 13]"] ;
295 -> 296 ;
297 [label="X[1] <= 0.665\nentropy = 0.9544\nsamples = 16\nvalue = [6, 10]"] ;
296 -> 297 ;
298 [label="X[0] <= 18.445\nentropy = 0.9183\nsamples = 15\nvalue = [5, 10]"] ;
297 -> 298 ;
299 [label="entropy = 0.0\nsamples = 1\nvalue = [1, 0]"] ;
298 -> 299 ;
300 [label="X[4] <= 277.5\nentropy = 0.8631\nsamples = 14\nvalue = [4, 10]"] ;
298 -> 300 ;
301 [label="X[4] <= 256.5\nentropy = 1.0\nsamples = 8\nvalue = [4, 4]"] ;
300 -> 301 ;
302 [label="entropy = 0.0\nsamples = 1\nvalue = [1, 0]"] ;
301 -> 302 ;
303 [label="X[0] <= 20.08\nentropy = 0.9852\nsamples = 7\nvalue = [3, 4]"] ;
301 -> 303 ;
304 [label="X[8] <= 0.5\nentropy = 0.9183\nsamples = 6\nvalue = [2, 4]"] ;
303 -> 304 ;
305 [label="X[0] <= 19.935\nentropy = 0.7219\nsamples = 5\nvalue = [1, 4]"] ;
304 -> 305 ;
306 [label="X[0] <= 19.585\nentropy = 1.0\nsamples = 2\nvalue = [1, 1]"] ;
305 -> 306 ;
307 [label="entropy = 0.0\nsamples = 1\nvalue = [0, 1]"] ;
306 -> 307 ;
308 [label="entropy = 0.0\nsamples = 1\nvalue = [1, 0]"] ;
306 -> 308 ;
309 [label="entropy = 0.0\nsamples = 3\nvalue = [0, 3]"] ;
305 -> 309 ;
310 [label="entropy = 0.0\nsamples = 1\nvalue = [1, 0]"] ;
304 -> 310 ;
311 [label="entropy = 0.0\nsamples = 1\nvalue = [1, 0]"] ;
303 -> 311 ;
312 [label="entropy = 0.0\nsamples = 6\nvalue = [0, 6]"] ;
300 -> 312 ;
313 [label="entropy = 0.0\nsamples = 1\nvalue = [1, 0]"] ;
297 -> 313 ;
314 [label="X[4] <= 288.5\nentropy = 0.8813\nsamples = 10\nvalue = [7, 3]"] ;
296 -> 314 ;
315 [label="entropy = 0.0\nsamples = 5\nvalue = [5, 0]"] ;
314 -> 315 ;
316 [label="X[9] <= 0.5\nentropy = 0.971\nsamples = 5\nvalue = [2, 3]"] ;
314 -> 316 ;
317 [label="entropy = 0.0\nsamples = 2\nvalue = [0, 2]"] ;
316 -> 317 ;
318 [label="X[8] <= 0.5\nentropy = 0.9183\nsamples = 3\nvalue = [2, 1]"] ;
316 -> 318 ;
319 [label="entropy = 0.0\nsamples = 2\nvalue = [2, 0]"] ;
318 -> 319 ;
320 [label="entropy = 0.0\nsamples = 1\nvalue = [0, 1]"] ;
318 -> 320 ;
321 [label="entropy = 0.0\nsamples = 2\nvalue = [0, 2]"] ;
295 -> 321 ;
322 [label="entropy = 0.0\nsamples = 2\nvalue = [0, 2]"] ;
292 -> 322 ;
323 [label="X[2] <= 9.5\nentropy = 0.9299\nsamples = 55\nvalue = [36, 19]"] ;
291 -> 323 ;
324 [label="X[4] <= 263.5\nentropy = 0.7335\nsamples = 34\nvalue = [27, 7]"] ;
323 -> 324 ;
325 [label="X[0] <= 27.085\nentropy = 0.8113\nsamples = 4\nvalue = [1, 3]"] ;
324 -> 325 ;
326 [label="entropy = 0.0\nsamples = 3\nvalue = [0, 3]"] ;
325 -> 326 ;
327 [label="entropy = 0.0\nsamples = 1\nvalue = [1, 0]"] ;
325 -> 327 ;
328 [label="X[8] <= 0.5\nentropy = 0.5665\nsamples = 30\nvalue = [26, 4]"] ;
324 -> 328 ;
329 [label="X[4] <= 299.0\nentropy = 0.2423\nsamples = 25\nvalue = [24, 1]"] ;
328 -> 329 ;
330 [label="entropy = 0.0\nsamples = 23\nvalue = [23, 0]"] ;
329 -> 330 ;
331 [label="X[2] <= 4.335\nentropy = 1.0\nsamples = 2\nvalue = [1, 1]"] ;
329 -> 331 ;
332 [label="entropy = 0.0\nsamples = 1\nvalue = [1, 0]"] ;
331 -> 332 ;
333 [label="entropy = 0.0\nsamples = 1\nvalue = [0, 1]"] ;
331 -> 333 ;
334 [label="X[0] <= 17.085\nentropy = 0.971\nsamples = 5\nvalue = [2, 3]"] ;
328 -> 334 ;
335 [label="entropy = 0.0\nsamples = 2\nvalue = [2, 0]"] ;
334 -> 335 ;
336 [label="entropy = 0.0\nsamples = 3\nvalue = [0, 3]"] ;
334 -> 336 ;
337 [label="X[1] <= 23.835\nentropy = 0.9852\nsamples = 21\nvalue = [9, 12]"] ;
323 -> 337 ;
338 [label="entropy = 0.0\nsamples = 6\nvalue = [0, 6]"] ;
337 -> 338 ;
339 [label="X[4] <= 285.0\nentropy = 0.971\nsamples = 15\nvalue = [9, 6]"] ;
337 -> 339 ;
340 [label="X[0] <= 20.96\nentropy = 0.8113\nsamples = 12\nvalue = [9, 3]"] ;
339 -> 340 ;
341 [label="entropy = 0.0\nsamples = 5\nvalue = [5, 0]"] ;
340 -> 341 ;
342 [label="X[9] <= 0.5\nentropy = 0.9852\nsamples = 7\nvalue = [4, 3]"] ;
340 -> 342 ;
343 [label="entropy = 0.0\nsamples = 2\nvalue = [2, 0]"] ;
342 -> 343 ;
344 [label="X[0] <= 23.0\nentropy = 0.971\nsamples = 5\nvalue = [2, 3]"] ;
342 -> 344 ;
345 [label="entropy = 0.0\nsamples = 2\nvalue = [0, 2]"] ;
344 -> 345 ;
346 [label="X[4] <= 274.5\nentropy = 0.9183\nsamples = 3\nvalue = [2, 1]"] ;
344 -> 346 ;
347 [label="entropy = 0.0\nsamples = 2\nvalue = [2, 0]"] ;
346 -> 347 ;
348 [label="entropy = 0.0\nsamples = 1\nvalue = [0, 1]"] ;
346 -> 348 ;
349 [label="entropy = 0.0\nsamples = 3\nvalue = [0, 3]"] ;
339 -> 349 ;
350 [label="X[4] <= 191.5\nentropy = 0.896\nsamples = 16\nvalue = [5, 11]"] ;
198 -> 350 ;
351 [label="entropy = 0.0\nsamples = 4\nvalue = [0, 4]"] ;
350 -> 351 ;
352 [label="X[4] <= 221.0\nentropy = 0.9799\nsamples = 12\nvalue = [5, 7]"] ;
350 -> 352 ;
353 [label="X[2] <= 5.5\nentropy = 0.9183\nsamples = 6\nvalue = [4, 2]"] ;
352 -> 353 ;
354 [label="entropy = 0.0\nsamples = 3\nvalue = [3, 0]"] ;
353 -> 354 ;
355 [label="X[4] <= 208.5\nentropy = 0.9183\nsamples = 3\nvalue = [1, 2]"] ;
353 -> 355 ;
356 [label="entropy = 0.0\nsamples = 2\nvalue = [0, 2]"] ;
355 -> 356 ;
357 [label="entropy = 0.0\nsamples = 1\nvalue = [1, 0]"] ;
355 -> 357 ;
358 [label="X[0] <= 28.405\nentropy = 0.65\nsamples = 6\nvalue = [1, 5]"] ;
352 -> 358 ;
359 [label="entropy = 0.0\nsamples = 1\nvalue = [1, 0]"] ;
358 -> 359 ;
360 [label="entropy = 0.0\nsamples = 5\nvalue = [0, 5]"] ;
358 -> 360 ;
361 [label="X[9] <= 0.5\nentropy = 0.8606\nsamples = 3541\nvalue = [2536, 1005]"] ;
3 -> 361 ;
362 [label="X[1] <= 146.665\nentropy = 0.9066\nsamples = 1478\nvalue = [1002, 476]"] ;
361 -> 362 ;
363 [label="X[8] <= 0.5\nentropy = 0.9031\nsamples = 1468\nvalue = [1000, 468]"] ;
362 -> 363 ;
364 [label="X[1] <= 1.835\nentropy = 0.9094\nsamples = 1423\nvalue = [961, 462]"] ;
363 -> 364 ;
365 [label="X[2] <= 1.165\nentropy = 0.9682\nsamples = 215\nvalue = [130, 85]"] ;
364 -> 365 ;
366 [label="X[5] <= 0.5\nentropy = 0.9747\nsamples = 209\nvalue = [124, 85]"] ;
365 -> 366 ;
367 [label="X[4] <= 249.5\nentropy = 0.7642\nsamples = 9\nvalue = [2, 7]"] ;
366 -> 367 ;
368 [label="entropy = 0.0\nsamples = 5\nvalue = [0, 5]"] ;
367 -> 368 ;
369 [label="X[0] <= 32.395\nentropy = 1.0\nsamples = 4\nvalue = [2, 2]"] ;
367 -> 369 ;
370 [label="entropy = 0.0\nsamples = 1\nvalue = [1, 0]"] ;
369 -> 370 ;
371 [label="X[0] <= 35.475\nentropy = 0.9183\nsamples = 3\nvalue = [1, 2]"] ;
369 -> 371 ;
372 [label="entropy = 0.0\nsamples = 1\nvalue = [0, 1]"] ;
371 -> 372 ;
373 [label="X[4] <= 282.5\nentropy = 1.0\nsamples = 2\nvalue = [1, 1]"] ;
371 -> 373 ;
374 [label="entropy = 0.0\nsamples = 1\nvalue = [1, 0]"] ;
373 -> 374 ;
375 [label="entropy = 0.0\nsamples = 1\nvalue = [0, 1]"] ;
373 -> 375 ;
376 [label="X[0] <= 69.98\nentropy = 0.9648\nsamples = 200\nvalue = [122, 78]"] ;
366 -> 376 ;
377 [label="X[4] <= 294.5\nentropy = 0.9554\nsamples = 194\nvalue = [121, 73]"] ;
376 -> 377 ;
378 [label="X[0] <= 67.07\nentropy = 0.9689\nsamples = 174\nvalue = [105, 69]"] ;
377 -> 378 ;
379 [label="X[0] <= 61.04\nentropy = 0.9769\nsamples = 168\nvalue = [99, 69]"] ;
378 -> 379 ;
380 [label="X[4] <= 262.5\nentropy = 0.971\nsamples = 165\nvalue = [99, 66]"] ;
379 -> 380 ;
381 [label="X[4] <= 239.5\nentropy = 0.9183\nsamples = 111\nvalue = [74, 37]"] ;
380 -> 381 ;
382 [label="X[3] <= 9.5\nentropy = 0.9591\nsamples = 76\nvalue = [47, 29]"] ;
381 -> 382 ;
383 [label="X[3] <= 8.5\nentropy = 0.9532\nsamples = 75\nvalue = [47, 28]"] ;
382 -> 383 ;
384 [label="X[4] <= 141.0\nentropy = 0.9641\nsamples = 72\nvalue = [44, 28]"] ;
383 -> 384 ;
385 [label="entropy = 0.0\nsamples = 2\nvalue = [0, 2]"] ;
384 -> 385 ;
386 [label="X[4] <= 172.0\nentropy = 0.9518\nsamples = 70\nvalue = [44, 26]"] ;
384 -> 386 ;
387 [label="entropy = 0.0\nsamples = 3\nvalue = [3, 0]"] ;
386 -> 387 ;
388 [label="X[4] <= 178.5\nentropy = 0.9635\nsamples = 67\nvalue = [41, 26]"] ;
386 -> 388 ;
389 [label="entropy = 0.0\nsamples = 2\nvalue = [0, 2]"] ;
388 -> 389 ;
390 [label="X[0] <= 45.47\nentropy = 0.9501\nsamples = 65\nvalue = [41, 24]"] ;
388 -> 390 ;
391 [label="X[0] <= 40.41\nentropy = 0.8886\nsamples = 49\nvalue = [34, 15]"] ;
390 -> 391 ;
392 [label="X[4] <= 190.5\nentropy = 0.9341\nsamples = 40\nvalue = [26, 14]"] ;
391 -> 392 ;
393 [label="X[1] <= 0.165\nentropy = 0.5436\nsamples = 8\nvalue = [7, 1]"] ;
392 -> 393 ;
394 [label="X[4] <= 187.0\nentropy = 1.0\nsamples = 2\nvalue = [1, 1]"] ;
393 -> 394 ;
395 [label="entropy = 0.0\nsamples = 1\nvalue = [0, 1]"] ;
394 -> 395 ;
396 [label="entropy = 0.0\nsamples = 1\nvalue = [1, 0]"] ;
394 -> 396 ;
397 [label="entropy = 0.0\nsamples = 6\nvalue = [6, 0]"] ;
393 -> 397 ;
398 [label="X[4] <= 220.0\nentropy = 0.9745\nsamples = 32\nvalue = [19, 13]"] ;
392 -> 398 ;
399 [label="X[0] <= 39.065\nentropy = 0.9984\nsamples = 21\nvalue = [10, 11]"] ;
398 -> 399 ;
400 [label="X[0] <= 35.36\nentropy = 0.9819\nsamples = 19\nvalue = [8, 11]"] ;
399 -> 400 ;
401 [label="X[0] <= 35.07\nentropy = 0.9612\nsamples = 13\nvalue = [8, 5]"] ;
400 -> 401 ;
402 [label="X[1] <= 0.165\nentropy = 1.0\nsamples = 10\nvalue = [5, 5]"] ;
401 -> 402 ;
403 [label="X[4] <= 216.0\nentropy = 0.8113\nsamples = 4\nvalue = [3, 1]"] ;
402 -> 403 ;
404 [label="entropy = 0.0\nsamples = 3\nvalue = [3, 0]"] ;
403 -> 404 ;
405 [label="entropy = 0.0\nsamples = 1\nvalue = [0, 1]"] ;
403 -> 405 ;
406 [label="X[4] <= 207.5\nentropy = 0.9183\nsamples = 6\nvalue = [2, 4]"] ;
402 -> 406 ;
407 [label="entropy = 0.0\nsamples = 3\nvalue = [0, 3]"] ;
406 -> 407 ;
408 [label="X[0] <= 32.805\nentropy = 0.9183\nsamples = 3\nvalue = [2, 1]"] ;
406 -> 408 ;
409 [label="entropy = 0.0\nsamples = 2\nvalue = [2, 0]"] ;
408 -> 409 ;
410 [label="entropy = 0.0\nsamples = 1\nvalue = [0, 1]"] ;
408 -> 410 ;
411 [label="entropy = 0.0\nsamples = 3\nvalue = [3, 0]"] ;
401 -> 411 ;
412 [label="entropy = 0.0\nsamples = 6\nvalue = [0, 6]"] ;
400 -> 412 ;
413 [label="entropy = 0.0\nsamples = 2\nvalue = [2, 0]"] ;
399 -> 413 ;
414 [label="X[0] <= 39.205\nentropy = 0.684\nsamples = 11\nvalue = [9, 2]"] ;
398 -> 414 ;
415 [label="X[4] <= 233.5\nentropy = 0.469\nsamples = 10\nvalue = [9, 1]"] ;
414 -> 415 ;
416 [label="entropy = 0.0\nsamples = 8\nvalue = [8, 0]"] ;
415 -> 416 ;
417 [label="X[1] <= 0.5\nentropy = 1.0\nsamples = 2\nvalue = [1, 1]"] ;
415 -> 417 ;
418 [label="entropy = 0.0\nsamples = 1\nvalue = [0, 1]"] ;
417 -> 418 ;
419 [label="entropy = 0.0\nsamples = 1\nvalue = [1, 0]"] ;
417 -> 419 ;
420 [label="entropy = 0.0\nsamples = 1\nvalue = [0, 1]"] ;
414 -> 420 ;
421 [label="X[4] <= 209.5\nentropy = 0.5033\nsamples = 9\nvalue = [8, 1]"] ;
391 -> 421 ;
422 [label="entropy = 0.0\nsamples = 7\nvalue = [7, 0]"] ;
421 -> 422 ;
423 [label="X[4] <= 224.0\nentropy = 1.0\nsamples = 2\nvalue = [1, 1]"] ;
421 -> 423 ;
424 [label="entropy = 0.0\nsamples = 1\nvalue = [0, 1]"] ;
423 -> 424 ;
425 [label="entropy = 0.0\nsamples = 1\nvalue = [1, 0]"] ;
423 -> 425 ;
426 [label="X[0] <= 56.055\nentropy = 0.9887\nsamples = 16\nvalue = [7, 9]"] ;
390 -> 426 ;
427 [label="X[0] <= 51.915\nentropy = 0.8454\nsamples = 11\nvalue = [3, 8]"] ;
426 -> 427 ;
428 [label="X[0] <= 48.375\nentropy = 0.9852\nsamples = 7\nvalue = [3, 4]"] ;
427 -> 428 ;
429 [label="X[4] <= 198.0\nentropy = 0.7219\nsamples = 5\nvalue = [1, 4]"] ;
428 -> 429 ;
430 [label="entropy = 0.0\nsamples = 1\nvalue = [1, 0]"] ;
429 -> 430 ;
431 [label="entropy = 0.0\nsamples = 4\nvalue = [0, 4]"] ;
429 -> 431 ;
432 [label="entropy = 0.0\nsamples = 2\nvalue = [2, 0]"] ;
428 -> 432 ;
433 [label="entropy = 0.0\nsamples = 4\nvalue = [0, 4]"] ;
427 -> 433 ;
434 [label="X[3] <= 6.5\nentropy = 0.7219\nsamples = 5\nvalue = [4, 1]"] ;
426 -> 434 ;
435 [label="entropy = 0.0\nsamples = 1\nvalue = [0, 1]"] ;
434 -> 435 ;
436 [label="entropy = 0.0\nsamples = 4\nvalue = [4, 0]"] ;
434 -> 436 ;
437 [label="entropy = 0.0\nsamples = 3\nvalue = [3, 0]"] ;
383 -> 437 ;
438 [label="entropy = 0.0\nsamples = 1\nvalue = [0, 1]"] ;
382 -> 438 ;
439 [label="X[0] <= 34.38\nentropy = 0.7755\nsamples = 35\nvalue = [27, 8]"] ;
381 -> 439 ;
440 [label="X[0] <= 30.455\nentropy = 0.9852\nsamples = 7\nvalue = [3, 4]"] ;
439 -> 440 ;
441 [label="entropy = 0.0\nsamples = 2\nvalue = [2, 0]"] ;
440 -> 441 ;
442 [label="X[0] <= 31.77\nentropy = 0.7219\nsamples = 5\nvalue = [1, 4]"] ;
440 -> 442 ;
443 [label="entropy = 0.0\nsamples = 3\nvalue = [0, 3]"] ;
442 -> 443 ;
444 [label="X[3] <= 9.0\nentropy = 1.0\nsamples = 2\nvalue = [1, 1]"] ;
442 -> 444 ;
445 [label="entropy = 0.0\nsamples = 1\nvalue = [1, 0]"] ;
444 -> 445 ;
446 [label="entropy = 0.0\nsamples = 1\nvalue = [0, 1]"] ;
444 -> 446 ;
447 [label="X[0] <= 47.035\nentropy = 0.5917\nsamples = 28\nvalue = [24, 4]"] ;
439 -> 447 ;
448 [label="entropy = 0.0\nsamples = 16\nvalue = [16, 0]"] ;
447 -> 448 ;
449 [label="X[4] <= 249.5\nentropy = 0.9183\nsamples = 12\nvalue = [8, 4]"] ;
447 -> 449 ;
450 [label="entropy = 0.0\nsamples = 3\nvalue = [3, 0]"] ;
449 -> 450 ;
451 [label="X[0] <= 49.055\nentropy = 0.9911\nsamples = 9\nvalue = [5, 4]"] ;
449 -> 451 ;
452 [label="entropy = 0.0\nsamples = 1\nvalue = [0, 1]"] ;
451 -> 452 ;
453 [label="X[4] <= 252.5\nentropy = 0.9544\nsamples = 8\nvalue = [5, 3]"] ;
451 -> 453 ;
454 [label="entropy = 0.0\nsamples = 2\nvalue = [2, 0]"] ;
453 -> 454 ;
455 [label="X[4] <= 254.0\nentropy = 1.0\nsamples = 6\nvalue = [3, 3]"] ;
453 -> 455 ;
456 [label="entropy = 0.0\nsamples = 1\nvalue = [0, 1]"] ;
455 -> 456 ;
457 [label="X[0] <= 50.17\nentropy = 0.971\nsamples = 5\nvalue = [3, 2]"] ;
455 -> 457 ;
458 [label="entropy = 0.0\nsamples = 1\nvalue = [1, 0]"] ;
457 -> 458 ;
459 [label="X[4] <= 257.5\nentropy = 1.0\nsamples = 4\nvalue = [2, 2]"] ;
457 -> 459 ;
460 [label="entropy = 0.0\nsamples = 1\nvalue = [1, 0]"] ;
459 -> 460 ;
461 [label="X[4] <= 261.5\nentropy = 0.9183\nsamples = 3\nvalue = [1, 2]"] ;
459 -> 461 ;
462 [label="entropy = 0.0\nsamples = 2\nvalue = [0, 2]"] ;
461 -> 462 ;
463 [label="entropy = 0.0\nsamples = 1\nvalue = [1, 0]"] ;
461 -> 463 ;
464 [label="X[0] <= 36.075\nentropy = 0.996\nsamples = 54\nvalue = [25, 29]"] ;
380 -> 464 ;
465 [label="X[0] <= 35.22\nentropy = 0.9321\nsamples = 23\nvalue = [15, 8]"] ;
464 -> 465 ;
466 [label="X[1] <= 0.335\nentropy = 0.9819\nsamples = 19\nvalue = [11, 8]"] ;
465 -> 466 ;
467 [label="X[4] <= 270.0\nentropy = 1.0\nsamples = 16\nvalue = [8, 8]"] ;
466 -> 467 ;
468 [label="entropy = 0.0\nsamples = 2\nvalue = [2, 0]"] ;
467 -> 468 ;
469 [label="X[4] <= 280.5\nentropy = 0.9852\nsamples = 14\nvalue = [6, 8]"] ;
467 -> 469 ;
470 [label="entropy = 0.0\nsamples = 4\nvalue = [0, 4]"] ;
469 -> 470 ;
471 [label="X[0] <= 30.485\nentropy = 0.971\nsamples = 10\nvalue = [6, 4]"] ;
469 -> 471 ;
472 [label="X[4] <= 289.0\nentropy = 0.7219\nsamples = 5\nvalue = [4, 1]"] ;
471 -> 472 ;
473 [label="entropy = 0.0\nsamples = 3\nvalue = [3, 0]"] ;
472 -> 473 ;
474 [label="X[0] <= 29.825\nentropy = 1.0\nsamples = 2\nvalue = [1, 1]"] ;
472 -> 474 ;
475 [label="entropy = 0.0\nsamples = 1\nvalue = [0, 1]"] ;
474 -> 475 ;
476 [label="entropy = 0.0\nsamples = 1\nvalue = [1, 0]"] ;
474 -> 476 ;
477 [label="X[4] <= 284.5\nentropy = 0.971\nsamples = 5\nvalue = [2, 3]"] ;
471 -> 477 ;
478 [label="X[3] <= 9.5\nentropy = 0.9183\nsamples = 3\nvalue = [2, 1]"] ;
477 -> 478 ;
479 [label="X[0] <= 34.43\nentropy = 1.0\nsamples = 2\nvalue = [1, 1]"] ;
478 -> 479 ;
480 [label="entropy = 0.0\nsamples = 1\nvalue = [0, 1]"] ;
479 -> 480 ;
481 [label="entropy = 0.0\nsamples = 1\nvalue = [1, 0]"] ;
479 -> 481 ;
482 [label="entropy = 0.0\nsamples = 1\nvalue = [1, 0]"] ;
478 -> 482 ;
483 [label="entropy = 0.0\nsamples = 2\nvalue = [0, 2]"] ;
477 -> 483 ;
484 [label="entropy = 0.0\nsamples = 3\nvalue = [3, 0]"] ;
466 -> 484 ;
485 [label="entropy = 0.0\nsamples = 4\nvalue = [4, 0]"] ;
465 -> 485 ;
486 [label="X[4] <= 270.5\nentropy = 0.9072\nsamples = 31\nvalue = [10, 21]"] ;
464 -> 486 ;
487 [label="entropy = 0.0\nsamples = 7\nvalue = [0, 7]"] ;
486 -> 487 ;
488 [label="X[4] <= 273.0\nentropy = 0.9799\nsamples = 24\nvalue = [10, 14]"] ;
486 -> 488 ;
489 [label="entropy = 0.0\nsamples = 3\nvalue = [3, 0]"] ;
488 -> 489 ;
490 [label="X[4] <= 277.5\nentropy = 0.9183\nsamples = 21\nvalue = [7, 14]"] ;
488 -> 490 ;
491 [label="entropy = 0.0\nsamples = 5\nvalue = [0, 5]"] ;
490 -> 491 ;
492 [label="X[4] <= 284.0\nentropy = 0.9887\nsamples = 16\nvalue = [7, 9]"] ;
490 -> 492 ;
493 [label="X[0] <= 38.605\nentropy = 0.9183\nsamples = 9\nvalue = [6, 3]"] ;
492 -> 493 ;
494 [label="entropy = 0.0\nsamples = 2\nvalue = [0, 2]"] ;
493 -> 494 ;
495 [label="X[0] <= 51.275\nentropy = 0.5917\nsamples = 7\nvalue = [6, 1]"] ;
493 -> 495 ;
496 [label="entropy = 0.0\nsamples = 6\nvalue = [6, 0]"] ;
495 -> 496 ;
497 [label="entropy = 0.0\nsamples = 1\nvalue = [0, 1]"] ;
495 -> 497 ;
498 [label="X[0] <= 56.69\nentropy = 0.5917\nsamples = 7\nvalue = [1, 6]"] ;
492 -> 498 ;
499 [label="entropy = 0.0\nsamples = 6\nvalue = [0, 6]"] ;
498 -> 499 ;
500 [label="entropy = 0.0\nsamples = 1\nvalue = [1, 0]"] ;
498 -> 500 ;
501 [label="entropy = 0.0\nsamples = 3\nvalue = [0, 3]"] ;
379 -> 501 ;
502 [label="entropy = 0.0\nsamples = 6\nvalue = [6, 0]"] ;
378 -> 502 ;
503 [label="X[0] <= 68.155\nentropy = 0.7219\nsamples = 20\nvalue = [16, 4]"] ;
377 -> 503 ;
504 [label="X[0] <= 41.205\nentropy = 0.6292\nsamples = 19\nvalue = [16, 3]"] ;
503 -> 504 ;
505 [label="X[0] <= 33.455\nentropy = 0.8454\nsamples = 11\nvalue = [8, 3]"] ;
504 -> 505 ;
506 [label="entropy = 0.0\nsamples = 4\nvalue = [4, 0]"] ;
505 -> 506 ;
507 [label="X[1] <= 0.165\nentropy = 0.9852\nsamples = 7\nvalue = [4, 3]"] ;
505 -> 507 ;
508 [label="X[0] <= 37.01\nentropy = 0.7219\nsamples = 5\nvalue = [4, 1]"] ;
507 -> 508 ;
509 [label="entropy = 0.0\nsamples = 1\nvalue = [0, 1]"] ;
508 -> 509 ;
510 [label="entropy = 0.0\nsamples = 4\nvalue = [4, 0]"] ;
508 -> 510 ;
511 [label="entropy = 0.0\nsamples = 2\nvalue = [0, 2]"] ;
507 -> 511 ;
512 [label="entropy = 0.0\nsamples = 8\nvalue = [8, 0]"] ;
504 -> 512 ;
513 [label="entropy = 0.0\nsamples = 1\nvalue = [0, 1]"] ;
503 -> 513 ;
514 [label="X[0] <= 72.9\nentropy = 0.65\nsamples = 6\nvalue = [1, 5]"] ;
376 -> 514 ;
515 [label="entropy = 0.0\nsamples = 5\nvalue = [0, 5]"] ;
514 -> 515 ;
516 [label="entropy = 0.0\nsamples = 1\nvalue = [1, 0]"] ;
514 -> 516 ;
517 [label="entropy = 0.0\nsamples = 6\nvalue = [6, 0]"] ;
365 -> 517 ;
518 [label="X[4] <= 302.5\nentropy = 0.8956\nsamples = 1208\nvalue = [831, 377]"] ;
364 -> 518 ;
519 [label="X[1] <= 30.5\nentropy = 0.8936\nsamples = 1205\nvalue = [831, 374]"] ;
518 -> 519 ;
520 [label="X[2] <= 25.5\nentropy = 0.8663\nsamples = 826\nvalue = [588, 238]"] ;
519 -> 520 ;
521 [label="X[1] <= 30.165\nentropy = 0.8709\nsamples = 816\nvalue = [578, 238]"] ;
520 -> 521 ;
522 [label="X[0] <= 54.51\nentropy = 0.8745\nsamples = 808\nvalue = [570, 238]"] ;
521 -> 522 ;
523 [label="X[1] <= 22.165\nentropy = 0.8422\nsamples = 573\nvalue = [418, 155]"] ;
522 -> 523 ;
524 [label="X[4] <= 265.5\nentropy = 0.8647\nsamples = 488\nvalue = [348, 140]"] ;
523 -> 524 ;
525 [label="X[4] <= 249.5\nentropy = 0.8319\nsamples = 391\nvalue = [288, 103]"] ;
524 -> 525 ;
526 [label="X[2] <= 20.165\nentropy = 0.8586\nsamples = 340\nvalue = [244, 96]"] ;
525 -> 526 ;
527 [label="X[4] <= 220.5\nentropy = 0.8529\nsamples = 338\nvalue = [244, 94]"] ;
526 -> 527 ;
528 [label="X[4] <= 218.5\nentropy = 0.8128\nsamples = 263\nvalue = [197, 66]"] ;
527 -> 528 ;
529 [label="X[0] <= 44.975\nentropy = 0.8281\nsamples = 253\nvalue = [187, 66]"] ;
528 -> 529 ;
530 [label="X[4] <= 216.5\nentropy = 0.7544\nsamples = 166\nvalue = [130, 36]"] ;
529 -> 530 ;
531 [label="X[0] <= 43.475\nentropy = 0.7293\nsamples = 162\nvalue = [129, 33]"] ;
530 -> 531 ;
532 [label="X[0] <= 31.065\nentropy = 0.7575\nsamples = 151\nvalue = [118, 33]"] ;
531 -> 532 ;
533 [label="X[0] <= 30.56\nentropy = 0.9887\nsamples = 16\nvalue = [9, 7]"] ;
532 -> 533 ;
534 [label="X[0] <= 29.995\nentropy = 0.8113\nsamples = 12\nvalue = [9, 3]"] ;
533 -> 534 ;
535 [label="X[4] <= 73.5\nentropy = 1.0\nsamples = 6\nvalue = [3, 3]"] ;
534 -> 535 ;
536 [label="entropy = 0.0\nsamples = 1\nvalue = [1, 0]"] ;
535 -> 536 ;
537 [label="X[3] <= 7.5\nentropy = 0.971\nsamples = 5\nvalue = [2, 3]"] ;
535 -> 537 ;
538 [label="X[4] <= 182.5\nentropy = 0.9183\nsamples = 3\nvalue = [2, 1]"] ;
537 -> 538 ;
539 [label="entropy = 0.0\nsamples = 1\nvalue = [0, 1]"] ;
538 -> 539 ;
540 [label="entropy = 0.0\nsamples = 2\nvalue = [2, 0]"] ;
538 -> 540 ;
541 [label="entropy = 0.0\nsamples = 2\nvalue = [0, 2]"] ;
537 -> 541 ;
542 [label="entropy = 0.0\nsamples = 6\nvalue = [6, 0]"] ;
534 -> 542 ;
543 [label="entropy = 0.0\nsamples = 4\nvalue = [0, 4]"] ;
533 -> 543 ;
544 [label="X[0] <= 35.215\nentropy = 0.7069\nsamples = 135\nvalue = [109, 26]"] ;
532 -> 544 ;
545 [label="X[0] <= 32.44\nentropy = 0.3451\nsamples = 31\nvalue = [29, 2]"] ;
544 -> 545 ;
546 [label="X[0] <= 31.98\nentropy = 0.8113\nsamples = 8\nvalue = [6, 2]"] ;
545 -> 546 ;
547 [label="entropy = 0.0\nsamples = 4\nvalue = [4, 0]"] ;
546 -> 547 ;
548 [label="X[4] <= 58.0\nentropy = 1.0\nsamples = 4\nvalue = [2, 2]"] ;
546 -> 548 ;
549 [label="entropy = 0.0\nsamples = 1\nvalue = [0, 1]"] ;
548 -> 549 ;
550 [label="X[1] <= 13.0\nentropy = 0.9183\nsamples = 3\nvalue = [2, 1]"] ;
548 -> 550 ;
551 [label="entropy = 0.0\nsamples = 2\nvalue = [2, 0]"] ;
550 -> 551 ;
552 [label="entropy = 0.0\nsamples = 1\nvalue = [0, 1]"] ;
550 -> 552 ;
553 [label="entropy = 0.0\nsamples = 23\nvalue = [23, 0]"] ;
545 -> 553 ;
554 [label="X[0] <= 35.25\nentropy = 0.7793\nsamples = 104\nvalue = [80, 24]"] ;
544 -> 554 ;
555 [label="entropy = 0.0\nsamples = 2\nvalue = [0, 2]"] ;
554 -> 555 ;
556 [label="X[3] <= 7.5\nentropy = 0.7522\nsamples = 102\nvalue = [80, 22]"] ;
554 -> 556 ;
557 [label="X[0] <= 36.1\nentropy = 0.6677\nsamples = 86\nvalue = [71, 15]"] ;
556 -> 557 ;
558 [label="entropy = 0.0\nsamples = 19\nvalue = [19, 0]"] ;
557 -> 558 ;
559 [label="X[0] <= 36.865\nentropy = 0.7672\nsamples = 67\nvalue = [52, 15]"] ;
557 -> 559 ;
560 [label="X[4] <= 198.0\nentropy = 0.65\nsamples = 6\nvalue = [1, 5]"] ;
559 -> 560 ;
561 [label="entropy = 0.0\nsamples = 4\nvalue = [0, 4]"] ;
560 -> 561 ;
562 [label="X[1] <= 11.335\nentropy = 1.0\nsamples = 2\nvalue = [1, 1]"] ;
560 -> 562 ;
563 [label="entropy = 0.0\nsamples = 1\nvalue = [1, 0]"] ;
562 -> 563 ;
564 [label="entropy = 0.0\nsamples = 1\nvalue = [0, 1]"] ;
562 -> 564 ;
565 [label="X[1] <= 6.165\nentropy = 0.6436\nsamples = 61\nvalue = [51, 10]"] ;
559 -> 565 ;
566 [label="entropy = 0.0\nsamples = 18\nvalue = [18, 0]"] ;
565 -> 566 ;
567 [label="X[2] <= 2.5\nentropy = 0.7824\nsamples = 43\nvalue = [33, 10]"] ;
565 -> 567 ;
568 [label="X[1] <= 9.335\nentropy = 0.9427\nsamples = 25\nvalue = [16, 9]"] ;
567 -> 568 ;
569 [label="X[0] <= 41.625\nentropy = 0.9911\nsamples = 9\nvalue = [4, 5]"] ;
568 -> 569 ;
570 [label="X[4] <= 78.5\nentropy = 0.9183\nsamples = 6\nvalue = [4, 2]"] ;
569 -> 570 ;
571 [label="entropy = 0.0\nsamples = 1\nvalue = [0, 1]"] ;
570 -> 571 ;
572 [label="X[4] <= 212.0\nentropy = 0.7219\nsamples = 5\nvalue = [4, 1]"] ;
570 -> 572 ;
573 [label="entropy = 0.0\nsamples = 4\nvalue = [4, 0]"] ;
572 -> 573 ;
574 [label="entropy = 0.0\nsamples = 1\nvalue = [0, 1]"] ;
572 -> 574 ;
575 [label="entropy = 0.0\nsamples = 3\nvalue = [0, 3]"] ;
569 -> 575 ;
576 [label="X[0] <= 39.42\nentropy = 0.8113\nsamples = 16\nvalue = [12, 4]"] ;
568 -> 576 ;
577 [label="X[0] <= 38.48\nentropy = 0.971\nsamples = 5\nvalue = [2, 3]"] ;
576 -> 577 ;
578 [label="X[2] <= 0.165\nentropy = 0.9183\nsamples = 3\nvalue = [2, 1]"] ;
577 -> 578 ;
579 [label="entropy = 0.0\nsamples = 1\nvalue = [0, 1]"] ;
578 -> 579 ;
580 [label="entropy = 0.0\nsamples = 2\nvalue = [2, 0]"] ;
578 -> 580 ;
581 [label="entropy = 0.0\nsamples = 2\nvalue = [0, 2]"] ;
577 -> 581 ;
582 [label="X[1] <= 15.165\nentropy = 0.4395\nsamples = 11\nvalue = [10, 1]"] ;
576 -> 582 ;
583 [label="entropy = 0.0\nsamples = 7\nvalue = [7, 0]"] ;
582 -> 583 ;
584 [label="X[1] <= 16.83\nentropy = 0.8113\nsamples = 4\nvalue = [3, 1]"] ;
582 -> 584 ;
585 [label="entropy = 0.0\nsamples = 1\nvalue = [0, 1]"] ;
584 -> 585 ;
586 [label="entropy = 0.0\nsamples = 3\nvalue = [3, 0]"] ;
584 -> 586 ;
587 [label="X[3] <= 6.5\nentropy = 0.3095\nsamples = 18\nvalue = [17, 1]"] ;
567 -> 587 ;
588 [label="X[1] <= 18.665\nentropy = 0.9183\nsamples = 3\nvalue = [2, 1]"] ;
587 -> 588 ;
589 [label="entropy = 0.0\nsamples = 2\nvalue = [2, 0]"] ;
588 -> 589 ;
590 [label="entropy = 0.0\nsamples = 1\nvalue = [0, 1]"] ;
588 -> 590 ;
591 [label="entropy = 0.0\nsamples = 15\nvalue = [15, 0]"] ;
587 -> 591 ;
592 [label="X[1] <= 19.5\nentropy = 0.9887\nsamples = 16\nvalue = [9, 7]"] ;
556 -> 592 ;
593 [label="X[0] <= 35.595\nentropy = 1.0\nsamples = 14\nvalue = [7, 7]"] ;
592 -> 593 ;
594 [label="entropy = 0.0\nsamples = 3\nvalue = [0, 3]"] ;
593 -> 594 ;
595 [label="X[4] <= 108.5\nentropy = 0.9457\nsamples = 11\nvalue = [7, 4]"] ;
593 -> 595 ;
596 [label="X[2] <= 5.165\nentropy = 0.9852\nsamples = 7\nvalue = [3, 4]"] ;
595 -> 596 ;
597 [label="X[1] <= 12.0\nentropy = 0.9183\nsamples = 6\nvalue = [2, 4]"] ;
596 -> 597 ;
598 [label="X[0] <= 42.405\nentropy = 0.9183\nsamples = 3\nvalue = [2, 1]"] ;
597 -> 598 ;
599 [label="entropy = 0.0\nsamples = 2\nvalue = [2, 0]"] ;
598 -> 599 ;
600 [label="entropy = 0.0\nsamples = 1\nvalue = [0, 1]"] ;
598 -> 600 ;
601 [label="entropy = 0.0\nsamples = 3\nvalue = [0, 3]"] ;
597 -> 601 ;
602 [label="entropy = 0.0\nsamples = 1\nvalue = [1, 0]"] ;
596 -> 602 ;
603 [label="entropy = 0.0\nsamples = 4\nvalue = [4, 0]"] ;
595 -> 603 ;
604 [label="entropy = 0.0\nsamples = 2\nvalue = [2, 0]"] ;
592 -> 604 ;
605 [label="entropy = 0.0\nsamples = 11\nvalue = [11, 0]"] ;
531 -> 605 ;
606 [label="X[1] <= 19.0\nentropy = 0.8113\nsamples = 4\nvalue = [1, 3]"] ;
530 -> 606 ;
607 [label="entropy = 0.0\nsamples = 3\nvalue = [0, 3]"] ;
606 -> 607 ;
608 [label="entropy = 0.0\nsamples = 1\nvalue = [1, 0]"] ;
606 -> 608 ;
609 [label="X[1] <= 7.5\nentropy = 0.9294\nsamples = 87\nvalue = [57, 30]"] ;
529 -> 609 ;
610 [label="X[4] <= 214.5\nentropy = 0.9991\nsamples = 29\nvalue = [14, 15]"] ;
609 -> 610 ;
611 [label="X[4] <= 206.0\nentropy = 0.9829\nsamples = 26\nvalue = [11, 15]"] ;
610 -> 611 ;
612 [label="X[3] <= 8.5\nentropy = 1.0\nsamples = 22\nvalue = [11, 11]"] ;
611 -> 612 ;
613 [label="X[1] <= 5.165\nentropy = 0.9819\nsamples = 19\nvalue = [11, 8]"] ;
612 -> 613 ;
614 [label="X[0] <= 45.445\nentropy = 0.9612\nsamples = 13\nvalue = [5, 8]"] ;
613 -> 614 ;
615 [label="entropy = 0.0\nsamples = 2\nvalue = [0, 2]"] ;
614 -> 615 ;
616 [label="X[0] <= 47.405\nentropy = 0.994\nsamples = 11\nvalue = [5, 6]"] ;
614 -> 616 ;
617 [label="entropy = 0.0\nsamples = 2\nvalue = [2, 0]"] ;
616 -> 617 ;
618 [label="X[4] <= 99.5\nentropy = 0.9183\nsamples = 9\nvalue = [3, 6]"] ;
616 -> 618 ;
619 [label="entropy = 0.0\nsamples = 1\nvalue = [1, 0]"] ;
618 -> 619 ;
620 [label="X[1] <= 4.0\nentropy = 0.8113\nsamples = 8\nvalue = [2, 6]"] ;
618 -> 620 ;
621 [label="X[4] <= 191.0\nentropy = 1.0\nsamples = 4\nvalue = [2, 2]"] ;
620 -> 621 ;
622 [label="entropy = 0.0\nsamples = 2\nvalue = [0, 2]"] ;
621 -> 622 ;
623 [label="entropy = 0.0\nsamples = 2\nvalue = [2, 0]"] ;
621 -> 623 ;
624 [label="entropy = 0.0\nsamples = 4\nvalue = [0, 4]"] ;
620 -> 624 ;
625 [label="entropy = 0.0\nsamples = 6\nvalue = [6, 0]"] ;
613 -> 625 ;
626 [label="entropy = 0.0\nsamples = 3\nvalue = [0, 3]"] ;
612 -> 626 ;
627 [label="entropy = 0.0\nsamples = 4\nvalue = [0, 4]"] ;
611 -> 627 ;
628 [label="entropy = 0.0\nsamples = 3\nvalue = [3, 0]"] ;
610 -> 628 ;
629 [label="X[4] <= 43.0\nentropy = 0.8247\nsamples = 58\nvalue = [43, 15]"] ;
609 -> 629 ;
630 [label="X[0] <= 49.645\nentropy = 0.8113\nsamples = 4\nvalue = [1, 3]"] ;
629 -> 630 ;
631 [label="X[0] <= 47.58\nentropy = 1.0\nsamples = 2\nvalue = [1, 1]"] ;
630 -> 631 ;
632 [label="entropy = 0.0\nsamples = 1\nvalue = [0, 1]"] ;
631 -> 632 ;
633 [label="entropy = 0.0\nsamples = 1\nvalue = [1, 0]"] ;
631 -> 633 ;
634 [label="entropy = 0.0\nsamples = 2\nvalue = [0, 2]"] ;
630 -> 634 ;
635 [label="X[3] <= 7.5\nentropy = 0.7642\nsamples = 54\nvalue = [42, 12]"] ;
629 -> 635 ;
636 [label="X[4] <= 182.0\nentropy = 0.8454\nsamples = 44\nvalue = [32, 12]"] ;
635 -> 636 ;
637 [label="X[4] <= 96.0\nentropy = 0.8113\nsamples = 4\nvalue = [1, 3]"] ;
636 -> 637 ;
638 [label="entropy = 0.0\nsamples = 1\nvalue = [1, 0]"] ;
637 -> 638 ;
639 [label="entropy = 0.0\nsamples = 3\nvalue = [0, 3]"] ;
637 -> 639 ;
640 [label="X[1] <= 15.5\nentropy = 0.7692\nsamples = 40\nvalue = [31, 9]"] ;
636 -> 640 ;
641 [label="X[0] <= 49.18\nentropy = 0.9059\nsamples = 28\nvalue = [19, 9]"] ;
640 -> 641 ;
642 [label="X[4] <= 198.5\nentropy = 0.9911\nsamples = 9\nvalue = [4, 5]"] ;
641 -> 642 ;
643 [label="X[4] <= 192.0\nentropy = 0.9183\nsamples = 6\nvalue = [4, 2]"] ;
642 -> 643 ;
644 [label="entropy = 0.0\nsamples = 1\nvalue = [0, 1]"] ;
643 -> 644 ;
645 [label="X[2] <= 0.165\nentropy = 0.7219\nsamples = 5\nvalue = [4, 1]"] ;
643 -> 645 ;
646 [label="X[1] <= 14.165\nentropy = 1.0\nsamples = 2\nvalue = [1, 1]"] ;
645 -> 646 ;
647 [label="entropy = 0.0\nsamples = 1\nvalue = [0, 1]"] ;
646 -> 647 ;
648 [label="entropy = 0.0\nsamples = 1\nvalue = [1, 0]"] ;
646 -> 648 ;
649 [label="entropy = 0.0\nsamples = 3\nvalue = [3, 0]"] ;
645 -> 649 ;
650 [label="entropy = 0.0\nsamples = 3\nvalue = [0, 3]"] ;
642 -> 650 ;
651 [label="X[0] <= 50.115\nentropy = 0.7425\nsamples = 19\nvalue = [15, 4]"] ;
641 -> 651 ;
652 [label="entropy = 0.0\nsamples = 6\nvalue = [6, 0]"] ;
651 -> 652 ;
653 [label="X[1] <= 14.665\nentropy = 0.8905\nsamples = 13\nvalue = [9, 4]"] ;
651 -> 653 ;
654 [label="X[4] <= 216.0\nentropy = 0.8113\nsamples = 12\nvalue = [9, 3]"] ;
653 -> 654 ;
655 [label="X[2] <= 1.5\nentropy = 0.684\nsamples = 11\nvalue = [9, 2]"] ;
654 -> 655 ;
656 [label="entropy = 0.0\nsamples = 4\nvalue = [4, 0]"] ;
655 -> 656 ;
657 [label="X[3] <= 6.5\nentropy = 0.8631\nsamples = 7\nvalue = [5, 2]"] ;
655 -> 657 ;
658 [label="entropy = 0.0\nsamples = 1\nvalue = [0, 1]"] ;
657 -> 658 ;
659 [label="X[0] <= 54.04\nentropy = 0.65\nsamples = 6\nvalue = [5, 1]"] ;
657 -> 659 ;
660 [label="entropy = 0.0\nsamples = 4\nvalue = [4, 0]"] ;
659 -> 660 ;
661 [label="X[2] <= 3.835\nentropy = 1.0\nsamples = 2\nvalue = [1, 1]"] ;
659 -> 661 ;
662 [label="entropy = 0.0\nsamples = 1\nvalue = [0, 1]"] ;
661 -> 662 ;
663 [label="entropy = 0.0\nsamples = 1\nvalue = [1, 0]"] ;
661 -> 663 ;
664 [label="entropy = 0.0\nsamples = 1\nvalue = [0, 1]"] ;
654 -> 664 ;
665 [label="entropy = 0.0\nsamples = 1\nvalue = [0, 1]"] ;
653 -> 665 ;
666 [label="entropy = 0.0\nsamples = 12\nvalue = [12, 0]"] ;
640 -> 666 ;
667 [label="entropy = 0.0\nsamples = 10\nvalue = [10, 0]"] ;
635 -> 667 ;
668 [label="entropy = 0.0\nsamples = 10\nvalue = [10, 0]"] ;
528 -> 668 ;
669 [label="X[4] <= 230.5\nentropy = 0.9532\nsamples = 75\nvalue = [47, 28]"] ;
527 -> 669 ;
670 [label="X[2] <= 3.165\nentropy = 0.9923\nsamples = 29\nvalue = [13, 16]"] ;
669 -> 670 ;
671 [label="X[6] <= 0.5\nentropy = 0.9321\nsamples = 23\nvalue = [8, 15]"] ;
670 -> 671 ;
672 [label="X[3] <= 7.5\nentropy = 0.8315\nsamples = 19\nvalue = [5, 14]"] ;
671 -> 672 ;
673 [label="entropy = 0.0\nsamples = 6\nvalue = [0, 6]"] ;
672 -> 673 ;
674 [label="X[0] <= 33.405\nentropy = 0.9612\nsamples = 13\nvalue = [5, 8]"] ;
672 -> 674 ;
675 [label="entropy = 0.0\nsamples = 3\nvalue = [0, 3]"] ;
674 -> 675 ;
676 [label="X[2] <= 1.665\nentropy = 1.0\nsamples = 10\nvalue = [5, 5]"] ;
674 -> 676 ;
677 [label="X[0] <= 40.1\nentropy = 0.9544\nsamples = 8\nvalue = [3, 5]"] ;
676 -> 677 ;
678 [label="X[0] <= 37.88\nentropy = 0.971\nsamples = 5\nvalue = [3, 2]"] ;
677 -> 678 ;
679 [label="X[1] <= 3.335\nentropy = 0.9183\nsamples = 3\nvalue = [1, 2]"] ;
678 -> 679 ;
680 [label="entropy = 0.0\nsamples = 1\nvalue = [1, 0]"] ;
679 -> 680 ;
681 [label="entropy = 0.0\nsamples = 2\nvalue = [0, 2]"] ;
679 -> 681 ;
682 [label="entropy = 0.0\nsamples = 2\nvalue = [2, 0]"] ;
678 -> 682 ;
683 [label="entropy = 0.0\nsamples = 3\nvalue = [0, 3]"] ;
677 -> 683 ;
684 [label="entropy = 0.0\nsamples = 2\nvalue = [2, 0]"] ;
676 -> 684 ;
685 [label="X[0] <= 35.57\nentropy = 0.8113\nsamples = 4\nvalue = [3, 1]"] ;
671 -> 685 ;
686 [label="entropy = 0.0\nsamples = 2\nvalue = [2, 0]"] ;
685 -> 686 ;
687 [label="X[0] <= 40.405\nentropy = 1.0\nsamples = 2\nvalue = [1, 1]"] ;
685 -> 687 ;
688 [label="entropy = 0.0\nsamples = 1\nvalue = [0, 1]"] ;
687 -> 688 ;
689 [label="entropy = 0.0\nsamples = 1\nvalue = [1, 0]"] ;
687 -> 689 ;
690 [label="X[0] <= 45.12\nentropy = 0.65\nsamples = 6\nvalue = [5, 1]"] ;
670 -> 690 ;
691 [label="entropy = 0.0\nsamples = 5\nvalue = [5, 0]"] ;
690 -> 691 ;
692 [label="entropy = 0.0\nsamples = 1\nvalue = [0, 1]"] ;
690 -> 692 ;
693 [label="X[4] <= 241.5\nentropy = 0.8281\nsamples = 46\nvalue = [34, 12]"] ;
669 -> 693 ;
694 [label="X[1] <= 3.0\nentropy = 0.5436\nsamples = 24\nvalue = [21, 3]"] ;
693 -> 694 ;
695 [label="entropy = 0.0\nsamples = 1\nvalue = [0, 1]"] ;
694 -> 695 ;
696 [label="X[0] <= 46.455\nentropy = 0.4262\nsamples = 23\nvalue = [21, 2]"] ;
694 -> 696 ;
697 [label="entropy = 0.0\nsamples = 18\nvalue = [18, 0]"] ;
696 -> 697 ;
698 [label="X[0] <= 49.575\nentropy = 0.971\nsamples = 5\nvalue = [3, 2]"] ;
696 -> 698 ;
699 [label="entropy = 0.0\nsamples = 2\nvalue = [0, 2]"] ;
698 -> 699 ;
700 [label="entropy = 0.0\nsamples = 3\nvalue = [3, 0]"] ;
698 -> 700 ;
701 [label="X[2] <= 3.335\nentropy = 0.976\nsamples = 22\nvalue = [13, 9]"] ;
693 -> 701 ;
702 [label="X[2] <= 1.5\nentropy = 0.8113\nsamples = 16\nvalue = [12, 4]"] ;
701 -> 702 ;
703 [label="X[1] <= 12.835\nentropy = 0.9183\nsamples = 12\nvalue = [8, 4]"] ;
702 -> 703 ;
704 [label="X[1] <= 8.665\nentropy = 0.9911\nsamples = 9\nvalue = [5, 4]"] ;
703 -> 704 ;
705 [label="X[2] <= 0.5\nentropy = 0.8631\nsamples = 7\nvalue = [5, 2]"] ;
704 -> 705 ;
706 [label="X[1] <= 6.165\nentropy = 0.971\nsamples = 5\nvalue = [3, 2]"] ;
705 -> 706 ;
707 [label="X[10] <= 0.5\nentropy = 0.9183\nsamples = 3\nvalue = [1, 2]"] ;
706 -> 707 ;
708 [label="entropy = 0.0\nsamples = 2\nvalue = [0, 2]"] ;
707 -> 708 ;
709 [label="entropy = 0.0\nsamples = 1\nvalue = [1, 0]"] ;
707 -> 709 ;
710 [label="entropy = 0.0\nsamples = 2\nvalue = [2, 0]"] ;
706 -> 710 ;
711 [label="entropy = 0.0\nsamples = 2\nvalue = [2, 0]"] ;
705 -> 711 ;
712 [label="entropy = 0.0\nsamples = 2\nvalue = [0, 2]"] ;
704 -> 712 ;
713 [label="entropy = 0.0\nsamples = 3\nvalue = [3, 0]"] ;
703 -> 713 ;
714 [label="entropy = 0.0\nsamples = 4\nvalue = [4, 0]"] ;
702 -> 714 ;
715 [label="X[1] <= 15.665\nentropy = 0.65\nsamples = 6\nvalue = [1, 5]"] ;
701 -> 715 ;
716 [label="entropy = 0.0\nsamples = 4\nvalue = [0, 4]"] ;
715 -> 716 ;
717 [label="X[2] <= 4.335\nentropy = 1.0\nsamples = 2\nvalue = [1, 1]"] ;
715 -> 717 ;
718 [label="entropy = 0.0\nsamples = 1\nvalue = [0, 1]"] ;
717 -> 718 ;
719 [label="entropy = 0.0\nsamples = 1\nvalue = [1, 0]"] ;
717 -> 719 ;
720 [label="entropy = 0.0\nsamples = 2\nvalue = [0, 2]"] ;
526 -> 720 ;
721 [label="X[2] <= 3.835\nentropy = 0.577\nsamples = 51\nvalue = [44, 7]"] ;
525 -> 721 ;
722 [label="X[0] <= 48.25\nentropy = 0.6892\nsamples = 38\nvalue = [31, 7]"] ;
721 -> 722 ;
723 [label="X[1] <= 2.665\nentropy = 0.8113\nsamples = 28\nvalue = [21, 7]"] ;
722 -> 723 ;
724 [label="entropy = 0.0\nsamples = 6\nvalue = [6, 0]"] ;
723 -> 724 ;
725 [label="X[6] <= 0.5\nentropy = 0.9024\nsamples = 22\nvalue = [15, 7]"] ;
723 -> 725 ;
726 [label="X[4] <= 252.0\nentropy = 0.9641\nsamples = 18\nvalue = [11, 7]"] ;
725 -> 726 ;
727 [label="entropy = 0.0\nsamples = 3\nvalue = [3, 0]"] ;
726 -> 727 ;
728 [label="X[4] <= 263.5\nentropy = 0.9968\nsamples = 15\nvalue = [8, 7]"] ;
726 -> 728 ;
729 [label="X[4] <= 260.5\nentropy = 0.9957\nsamples = 13\nvalue = [6, 7]"] ;
728 -> 729 ;
730 [label="X[0] <= 39.45\nentropy = 0.994\nsamples = 11\nvalue = [6, 5]"] ;
729 -> 730 ;
731 [label="X[2] <= 2.165\nentropy = 0.9183\nsamples = 6\nvalue = [2, 4]"] ;
730 -> 731 ;
732 [label="X[4] <= 258.5\nentropy = 0.7219\nsamples = 5\nvalue = [1, 4]"] ;
731 -> 732 ;
733 [label="X[1] <= 4.83\nentropy = 0.9183\nsamples = 3\nvalue = [1, 2]"] ;
732 -> 733 ;
734 [label="entropy = 0.0\nsamples = 1\nvalue = [1, 0]"] ;
733 -> 734 ;
735 [label="entropy = 0.0\nsamples = 2\nvalue = [0, 2]"] ;
733 -> 735 ;
736 [label="entropy = 0.0\nsamples = 2\nvalue = [0, 2]"] ;
732 -> 736 ;
737 [label="entropy = 0.0\nsamples = 1\nvalue = [1, 0]"] ;
731 -> 737 ;
738 [label="X[2] <= 1.17\nentropy = 0.7219\nsamples = 5\nvalue = [4, 1]"] ;
730 -> 738 ;
739 [label="entropy = 0.0\nsamples = 4\nvalue = [4, 0]"] ;
738 -> 739 ;
740 [label="entropy = 0.0\nsamples = 1\nvalue = [0, 1]"] ;
738 -> 740 ;
741 [label="entropy = 0.0\nsamples = 2\nvalue = [0, 2]"] ;
729 -> 741 ;
742 [label="entropy = 0.0\nsamples = 2\nvalue = [2, 0]"] ;
728 -> 742 ;
743 [label="entropy = 0.0\nsamples = 4\nvalue = [4, 0]"] ;
725 -> 743 ;
744 [label="entropy = 0.0\nsamples = 10\nvalue = [10, 0]"] ;
722 -> 744 ;
745 [label="entropy = 0.0\nsamples = 13\nvalue = [13, 0]"] ;
721 -> 745 ;
746 [label="X[1] <= 18.17\nentropy = 0.9591\nsamples = 97\nvalue = [60, 37]"] ;
524 -> 746 ;
747 [label="X[4] <= 267.5\nentropy = 0.922\nsamples = 89\nvalue = [59, 30]"] ;
746 -> 747 ;
748 [label="entropy = 0.0\nsamples = 4\nvalue = [0, 4]"] ;
747 -> 748 ;
749 [label="X[1] <= 9.165\nentropy = 0.8884\nsamples = 85\nvalue = [59, 26]"] ;
747 -> 749 ;
750 [label="X[0] <= 51.9\nentropy = 0.9928\nsamples = 40\nvalue = [22, 18]"] ;
749 -> 750 ;
751 [label="X[1] <= 4.665\nentropy = 0.9975\nsamples = 34\nvalue = [16, 18]"] ;
750 -> 751 ;
752 [label="X[0] <= 50.11\nentropy = 0.8113\nsamples = 12\nvalue = [9, 3]"] ;
751 -> 752 ;
753 [label="X[0] <= 37.36\nentropy = 0.684\nsamples = 11\nvalue = [9, 2]"] ;
752 -> 753 ;
754 [label="X[0] <= 35.875\nentropy = 0.9183\nsamples = 6\nvalue = [4, 2]"] ;
753 -> 754 ;
755 [label="entropy = 0.0\nsamples = 4\nvalue = [4, 0]"] ;
754 -> 755 ;
756 [label="entropy = 0.0\nsamples = 2\nvalue = [0, 2]"] ;
754 -> 756 ;
757 [label="entropy = 0.0\nsamples = 5\nvalue = [5, 0]"] ;
753 -> 757 ;
758 [label="entropy = 0.0\nsamples = 1\nvalue = [0, 1]"] ;
752 -> 758 ;
759 [label="X[1] <= 7.0\nentropy = 0.9024\nsamples = 22\nvalue = [7, 15]"] ;
751 -> 759 ;
760 [label="entropy = 0.0\nsamples = 7\nvalue = [0, 7]"] ;
759 -> 760 ;
761 [label="X[0] <= 40.065\nentropy = 0.9968\nsamples = 15\nvalue = [7, 8]"] ;
759 -> 761 ;
762 [label="X[1] <= 7.835\nentropy = 0.9799\nsamples = 12\nvalue = [7, 5]"] ;
761 -> 762 ;
763 [label="entropy = 0.0\nsamples = 4\nvalue = [4, 0]"] ;
762 -> 763 ;
764 [label="X[4] <= 277.0\nentropy = 0.9544\nsamples = 8\nvalue = [3, 5]"] ;
762 -> 764 ;
765 [label="entropy = 0.0\nsamples = 2\nvalue = [2, 0]"] ;
764 -> 765 ;
766 [label="X[0] <= 37.1\nentropy = 0.65\nsamples = 6\nvalue = [1, 5]"] ;
764 -> 766 ;
767 [label="entropy = 0.0\nsamples = 4\nvalue = [0, 4]"] ;
766 -> 767 ;
768 [label="X[1] <= 8.335\nentropy = 1.0\nsamples = 2\nvalue = [1, 1]"] ;
766 -> 768 ;
769 [label="entropy = 0.0\nsamples = 1\nvalue = [1, 0]"] ;
768 -> 769 ;
770 [label="entropy = 0.0\nsamples = 1\nvalue = [0, 1]"] ;
768 -> 770 ;
771 [label="entropy = 0.0\nsamples = 3\nvalue = [0, 3]"] ;
761 -> 771 ;
772 [label="entropy = 0.0\nsamples = 6\nvalue = [6, 0]"] ;
750 -> 772 ;
773 [label="X[0] <= 42.435\nentropy = 0.6752\nsamples = 45\nvalue = [37, 8]"] ;
749 -> 773 ;
774 [label="X[2] <= 8.665\nentropy = 0.799\nsamples = 33\nvalue = [25, 8]"] ;
773 -> 774 ;
775 [label="X[0] <= 30.875\nentropy = 0.7088\nsamples = 31\nvalue = [25, 6]"] ;
774 -> 775 ;
776 [label="entropy = 0.0\nsamples = 6\nvalue = [6, 0]"] ;
775 -> 776 ;
777 [label="X[0] <= 33.475\nentropy = 0.795\nsamples = 25\nvalue = [19, 6]"] ;
775 -> 777 ;
778 [label="entropy = 0.0\nsamples = 2\nvalue = [0, 2]"] ;
777 -> 778 ;
779 [label="X[4] <= 284.0\nentropy = 0.6666\nsamples = 23\nvalue = [19, 4]"] ;
777 -> 779 ;
780 [label="entropy = 0.0\nsamples = 12\nvalue = [12, 0]"] ;
779 -> 780 ;
781 [label="X[1] <= 13.665\nentropy = 0.9457\nsamples = 11\nvalue = [7, 4]"] ;
779 -> 781 ;
782 [label="X[1] <= 12.165\nentropy = 1.0\nsamples = 8\nvalue = [4, 4]"] ;
781 -> 782 ;
783 [label="X[4] <= 295.5\nentropy = 0.8113\nsamples = 4\nvalue = [3, 1]"] ;
782 -> 783 ;
784 [label="entropy = 0.0\nsamples = 3\nvalue = [3, 0]"] ;
783 -> 784 ;
785 [label="entropy = 0.0\nsamples = 1\nvalue = [0, 1]"] ;
783 -> 785 ;
786 [label="X[4] <= 299.0\nentropy = 0.8113\nsamples = 4\nvalue = [1, 3]"] ;
782 -> 786 ;
787 [label="entropy = 0.0\nsamples = 3\nvalue = [0, 3]"] ;
786 -> 787 ;
788 [label="entropy = 0.0\nsamples = 1\nvalue = [1, 0]"] ;
786 -> 788 ;
789 [label="entropy = 0.0\nsamples = 3\nvalue = [3, 0]"] ;
781 -> 789 ;
790 [label="entropy = 0.0\nsamples = 2\nvalue = [0, 2]"] ;
774 -> 790 ;
791 [label="entropy = 0.0\nsamples = 12\nvalue = [12, 0]"] ;
773 -> 791 ;
792 [label="X[0] <= 36.18\nentropy = 0.5436\nsamples = 8\nvalue = [1, 7]"] ;
746 -> 792 ;
793 [label="entropy = 0.0\nsamples = 1\nvalue = [1, 0]"] ;
792 -> 793 ;
794 [label="entropy = 0.0\nsamples = 7\nvalue = [0, 7]"] ;
792 -> 794 ;
795 [label="X[1] <= 23.835\nentropy = 0.6723\nsamples = 85\nvalue = [70, 15]"] ;
523 -> 795 ;
796 [label="entropy = 0.0\nsamples = 16\nvalue = [16, 0]"] ;
795 -> 796 ;
797 [label="X[2] <= 3.5\nentropy = 0.7554\nsamples = 69\nvalue = [54, 15]"] ;
795 -> 797 ;
798 [label="X[0] <= 35.555\nentropy = 0.951\nsamples = 27\nvalue = [17, 10]"] ;
797 -> 798 ;
799 [label="entropy = 0.0\nsamples = 5\nvalue = [5, 0]"] ;
798 -> 799 ;
800 [label="X[0] <= 42.79\nentropy = 0.994\nsamples = 22\nvalue = [12, 10]"] ;
798 -> 800 ;
801 [label="X[3] <= 9.5\nentropy = 0.5436\nsamples = 8\nvalue = [1, 7]"] ;
800 -> 801 ;
802 [label="entropy = 0.0\nsamples = 7\nvalue = [0, 7]"] ;
801 -> 802 ;
803 [label="entropy = 0.0\nsamples = 1\nvalue = [1, 0]"] ;
801 -> 803 ;
804 [label="X[0] <= 48.405\nentropy = 0.7496\nsamples = 14\nvalue = [11, 3]"] ;
800 -> 804 ;
805 [label="entropy = 0.0\nsamples = 8\nvalue = [8, 0]"] ;
804 -> 805 ;
806 [label="X[0] <= 49.58\nentropy = 1.0\nsamples = 6\nvalue = [3, 3]"] ;
804 -> 806 ;
807 [label="entropy = 0.0\nsamples = 2\nvalue = [0, 2]"] ;
806 -> 807 ;
808 [label="X[1] <= 25.5\nentropy = 0.8113\nsamples = 4\nvalue = [3, 1]"] ;
806 -> 808 ;
809 [label="entropy = 0.0\nsamples = 1\nvalue = [0, 1]"] ;
808 -> 809 ;
810 [label="entropy = 0.0\nsamples = 3\nvalue = [3, 0]"] ;
808 -> 810 ;
811 [label="X[2] <= 7.165\nentropy = 0.5266\nsamples = 42\nvalue = [37, 5]"] ;
797 -> 811 ;
812 [label="entropy = 0.0\nsamples = 16\nvalue = [16, 0]"] ;
811 -> 812 ;
813 [label="X[0] <= 52.45\nentropy = 0.7063\nsamples = 26\nvalue = [21, 5]"] ;
811 -> 813 ;
814 [label="X[0] <= 40.555\nentropy = 0.5586\nsamples = 23\nvalue = [20, 3]"] ;
813 -> 814 ;
815 [label="X[3] <= 8.5\nentropy = 0.9183\nsamples = 9\nvalue = [6, 3]"] ;
814 -> 815 ;
816 [label="X[3] <= 7.5\nentropy = 1.0\nsamples = 6\nvalue = [3, 3]"] ;
815 -> 816 ;
817 [label="X[2] <= 7.5\nentropy = 0.8113\nsamples = 4\nvalue = [3, 1]"] ;
816 -> 817 ;
818 [label="entropy = 0.0\nsamples = 1\nvalue = [0, 1]"] ;
817 -> 818 ;
819 [label="entropy = 0.0\nsamples = 3\nvalue = [3, 0]"] ;
817 -> 819 ;
820 [label="entropy = 0.0\nsamples = 2\nvalue = [0, 2]"] ;
816 -> 820 ;
821 [label="entropy = 0.0\nsamples = 3\nvalue = [3, 0]"] ;
815 -> 821 ;
822 [label="entropy = 0.0\nsamples = 14\nvalue = [14, 0]"] ;
814 -> 822 ;
823 [label="X[1] <= 28.835\nentropy = 0.9183\nsamples = 3\nvalue = [1, 2]"] ;
813 -> 823 ;
824 [label="entropy = 0.0\nsamples = 2\nvalue = [0, 2]"] ;
823 -> 824 ;
825 [label="entropy = 0.0\nsamples = 1\nvalue = [1, 0]"] ;
823 -> 825 ;
826 [label="X[0] <= 55.545\nentropy = 0.9369\nsamples = 235\nvalue = [152, 83]"] ;
522 -> 826 ;
827 [label="X[0] <= 55.27\nentropy = 0.9183\nsamples = 18\nvalue = [6, 12]"] ;
826 -> 827 ;
828 [label="X[3] <= 8.5\nentropy = 1.0\nsamples = 12\nvalue = [6, 6]"] ;
827 -> 828 ;
829 [label="X[2] <= 2.83\nentropy = 0.9183\nsamples = 9\nvalue = [3, 6]"] ;
828 -> 829 ;
830 [label="X[0] <= 54.72\nentropy = 0.971\nsamples = 5\nvalue = [3, 2]"] ;
829 -> 830 ;
831 [label="entropy = 0.0\nsamples = 2\nvalue = [0, 2]"] ;
830 -> 831 ;
832 [label="entropy = 0.0\nsamples = 3\nvalue = [3, 0]"] ;
830 -> 832 ;
833 [label="entropy = 0.0\nsamples = 4\nvalue = [0, 4]"] ;
829 -> 833 ;
834 [label="entropy = 0.0\nsamples = 3\nvalue = [3, 0]"] ;
828 -> 834 ;
835 [label="entropy = 0.0\nsamples = 6\nvalue = [0, 6]"] ;
827 -> 835 ;
836 [label="X[0] <= 55.755\nentropy = 0.912\nsamples = 217\nvalue = [146, 71]"] ;
826 -> 836 ;
837 [label="entropy = 0.0\nsamples = 7\nvalue = [7, 0]"] ;
836 -> 837 ;
838 [label="X[1] <= 3.0\nentropy = 0.923\nsamples = 210\nvalue = [139, 71]"] ;
836 -> 838 ;
839 [label="entropy = 0.0\nsamples = 6\nvalue = [6, 0]"] ;
838 -> 839 ;
840 [label="X[0] <= 55.815\nentropy = 0.9323\nsamples = 204\nvalue = [133, 71]"] ;
838 -> 840 ;
841 [label="entropy = 0.0\nsamples = 2\nvalue = [0, 2]"] ;
840 -> 841 ;
842 [label="X[4] <= 247.5\nentropy = 0.9263\nsamples = 202\nvalue = [133, 69]"] ;
840 -> 842 ;
843 [label="X[0] <= 58.225\nentropy = 0.9658\nsamples = 143\nvalue = [87, 56]"] ;
842 -> 843 ;
844 [label="X[4] <= 173.5\nentropy = 0.684\nsamples = 22\nvalue = [18, 4]"] ;
843 -> 844 ;
845 [label="X[1] <= 13.835\nentropy = 1.0\nsamples = 8\nvalue = [4, 4]"] ;
844 -> 845 ;
846 [label="X[2] <= 2.33\nentropy = 0.7219\nsamples = 5\nvalue = [1, 4]"] ;
845 -> 846 ;
847 [label="entropy = 0.0\nsamples = 4\nvalue = [0, 4]"] ;
846 -> 847 ;
848 [label="entropy = 0.0\nsamples = 1\nvalue = [1, 0]"] ;
846 -> 848 ;
849 [label="entropy = 0.0\nsamples = 3\nvalue = [3, 0]"] ;
845 -> 849 ;
850 [label="entropy = 0.0\nsamples = 14\nvalue = [14, 0]"] ;
844 -> 850 ;
851 [label="X[0] <= 67.225\nentropy = 0.9857\nsamples = 121\nvalue = [69, 52]"] ;
843 -> 851 ;
852 [label="X[3] <= 6.5\nentropy = 0.999\nsamples = 79\nvalue = [38, 41]"] ;
851 -> 852 ;
853 [label="X[1] <= 24.5\nentropy = 0.5436\nsamples = 8\nvalue = [1, 7]"] ;
852 -> 853 ;
854 [label="entropy = 0.0\nsamples = 6\nvalue = [0, 6]"] ;
853 -> 854 ;
855 [label="X[4] <= 184.0\nentropy = 1.0\nsamples = 2\nvalue = [1, 1]"] ;
853 -> 855 ;
856 [label="entropy = 0.0\nsamples = 1\nvalue = [1, 0]"] ;
855 -> 856 ;
857 [label="entropy = 0.0\nsamples = 1\nvalue = [0, 1]"] ;
855 -> 857 ;
858 [label="X[1] <= 23.0\nentropy = 0.9987\nsamples = 71\nvalue = [37, 34]"] ;
852 -> 858 ;
859 [label="X[4] <= 193.0\nentropy = 0.9968\nsamples = 60\nvalue = [28, 32]"] ;
858 -> 859 ;
860 [label="X[4] <= 185.5\nentropy = 0.9183\nsamples = 24\nvalue = [16, 8]"] ;
859 -> 860 ;
861 [label="X[2] <= 1.335\nentropy = 0.9819\nsamples = 19\nvalue = [11, 8]"] ;
860 -> 861 ;
862 [label="X[4] <= 51.5\nentropy = 0.9183\nsamples = 9\nvalue = [3, 6]"] ;
861 -> 862 ;
863 [label="entropy = 0.0\nsamples = 3\nvalue = [0, 3]"] ;
862 -> 863 ;
864 [label="X[4] <= 87.5\nentropy = 1.0\nsamples = 6\nvalue = [3, 3]"] ;
862 -> 864 ;
865 [label="entropy = 0.0\nsamples = 2\nvalue = [2, 0]"] ;
864 -> 865 ;
866 [label="X[1] <= 19.0\nentropy = 0.8113\nsamples = 4\nvalue = [1, 3]"] ;
864 -> 866 ;
867 [label="entropy = 0.0\nsamples = 3\nvalue = [0, 3]"] ;
866 -> 867 ;
868 [label="entropy = 0.0\nsamples = 1\nvalue = [1, 0]"] ;
866 -> 868 ;
869 [label="X[1] <= 12.335\nentropy = 0.7219\nsamples = 10\nvalue = [8, 2]"] ;
861 -> 869 ;
870 [label="X[1] <= 7.335\nentropy = 1.0\nsamples = 4\nvalue = [2, 2]"] ;
869 -> 870 ;
871 [label="entropy = 0.0\nsamples = 1\nvalue = [1, 0]"] ;
870 -> 871 ;
872 [label="X[0] <= 60.7\nentropy = 0.9183\nsamples = 3\nvalue = [1, 2]"] ;
870 -> 872 ;
873 [label="entropy = 0.0\nsamples = 1\nvalue = [0, 1]"] ;
872 -> 873 ;
874 [label="X[0] <= 63.52\nentropy = 1.0\nsamples = 2\nvalue = [1, 1]"] ;
872 -> 874 ;
875 [label="entropy = 0.0\nsamples = 1\nvalue = [1, 0]"] ;
874 -> 875 ;
876 [label="entropy = 0.0\nsamples = 1\nvalue = [0, 1]"] ;
874 -> 876 ;
877 [label="entropy = 0.0\nsamples = 6\nvalue = [6, 0]"] ;
869 -> 877 ;
878 [label="entropy = 0.0\nsamples = 5\nvalue = [5, 0]"] ;
860 -> 878 ;
879 [label="X[1] <= 20.0\nentropy = 0.9183\nsamples = 36\nvalue = [12, 24]"] ;
859 -> 879 ;
880 [label="X[4] <= 200.0\nentropy = 0.9629\nsamples = 31\nvalue = [12, 19]"] ;
879 -> 880 ;
881 [label="entropy = 0.0\nsamples = 4\nvalue = [0, 4]"] ;
880 -> 881 ;
882 [label="X[4] <= 244.5\nentropy = 0.9911\nsamples = 27\nvalue = [12, 15]"] ;
880 -> 882 ;
883 [label="X[4] <= 236.5\nentropy = 0.9988\nsamples = 25\nvalue = [12, 13]"] ;
882 -> 883 ;
884 [label="X[4] <= 225.5\nentropy = 0.9877\nsamples = 23\nvalue = [10, 13]"] ;
883 -> 884 ;
885 [label="X[0] <= 59.595\nentropy = 1.0\nsamples = 20\nvalue = [10, 10]"] ;
884 -> 885 ;
886 [label="X[0] <= 58.43\nentropy = 0.7219\nsamples = 5\nvalue = [4, 1]"] ;
885 -> 886 ;
887 [label="entropy = 0.0\nsamples = 1\nvalue = [0, 1]"] ;
886 -> 887 ;
888 [label="entropy = 0.0\nsamples = 4\nvalue = [4, 0]"] ;
886 -> 888 ;
889 [label="X[4] <= 218.5\nentropy = 0.971\nsamples = 15\nvalue = [6, 9]"] ;
885 -> 889 ;
890 [label="X[4] <= 213.5\nentropy = 0.8454\nsamples = 11\nvalue = [3, 8]"] ;
889 -> 890 ;
891 [label="X[0] <= 60.185\nentropy = 0.9852\nsamples = 7\nvalue = [3, 4]"] ;
890 -> 891 ;
892 [label="entropy = 0.0\nsamples = 1\nvalue = [1, 0]"] ;
891 -> 892 ;
893 [label="X[1] <= 6.165\nentropy = 0.9183\nsamples = 6\nvalue = [2, 4]"] ;
891 -> 893 ;
894 [label="X[2] <= 0.335\nentropy = 0.9183\nsamples = 3\nvalue = [2, 1]"] ;
893 -> 894 ;
895 [label="entropy = 0.0\nsamples = 1\nvalue = [0, 1]"] ;
894 -> 895 ;
896 [label="entropy = 0.0\nsamples = 2\nvalue = [2, 0]"] ;
894 -> 896 ;
897 [label="entropy = 0.0\nsamples = 3\nvalue = [0, 3]"] ;
893 -> 897 ;
898 [label="entropy = 0.0\nsamples = 4\nvalue = [0, 4]"] ;
890 -> 898 ;
899 [label="X[1] <= 8.165\nentropy = 0.8113\nsamples = 4\nvalue = [3, 1]"] ;
889 -> 899 ;
900 [label="entropy = 0.0\nsamples = 1\nvalue = [0, 1]"] ;
899 -> 900 ;
901 [label="entropy = 0.0\nsamples = 3\nvalue = [3, 0]"] ;
899 -> 901 ;
902 [label="entropy = 0.0\nsamples = 3\nvalue = [0, 3]"] ;
884 -> 902 ;
903 [label="entropy = 0.0\nsamples = 2\nvalue = [2, 0]"] ;
883 -> 903 ;
904 [label="entropy = 0.0\nsamples = 2\nvalue = [0, 2]"] ;
882 -> 904 ;
905 [label="entropy = 0.0\nsamples = 5\nvalue = [0, 5]"] ;
879 -> 905 ;
906 [label="X[0] <= 59.635\nentropy = 0.684\nsamples = 11\nvalue = [9, 2]"] ;
858 -> 906 ;
907 [label="entropy = 0.0\nsamples = 1\nvalue = [0, 1]"] ;
906 -> 907 ;
908 [label="X[0] <= 62.295\nentropy = 0.469\nsamples = 10\nvalue = [9, 1]"] ;
906 -> 908 ;
909 [label="X[0] <= 61.295\nentropy = 0.8113\nsamples = 4\nvalue = [3, 1]"] ;
908 -> 909 ;
910 [label="entropy = 0.0\nsamples = 3\nvalue = [3, 0]"] ;
909 -> 910 ;
911 [label="entropy = 0.0\nsamples = 1\nvalue = [0, 1]"] ;
909 -> 911 ;
912 [label="entropy = 0.0\nsamples = 6\nvalue = [6, 0]"] ;
908 -> 912 ;
913 [label="X[1] <= 19.17\nentropy = 0.8296\nsamples = 42\nvalue = [31, 11]"] ;
851 -> 913 ;
914 [label="X[0] <= 72.73\nentropy = 0.3228\nsamples = 17\nvalue = [16, 1]"] ;
913 -> 914 ;
915 [label="entropy = 0.0\nsamples = 14\nvalue = [14, 0]"] ;
914 -> 915 ;
916 [label="X[0] <= 73.615\nentropy = 0.9183\nsamples = 3\nvalue = [2, 1]"] ;
914 -> 916 ;
917 [label="entropy = 0.0\nsamples = 1\nvalue = [0, 1]"] ;
916 -> 917 ;
918 [label="entropy = 0.0\nsamples = 2\nvalue = [2, 0]"] ;
916 -> 918 ;
919 [label="X[3] <= 7.5\nentropy = 0.971\nsamples = 25\nvalue = [15, 10]"] ;
913 -> 919 ;
920 [label="X[4] <= 123.5\nentropy = 0.8113\nsamples = 20\nvalue = [15, 5]"] ;
919 -> 920 ;
921 [label="entropy = 0.0\nsamples = 2\nvalue = [0, 2]"] ;
920 -> 921 ;
922 [label="X[1] <= 29.5\nentropy = 0.65\nsamples = 18\nvalue = [15, 3]"] ;
920 -> 922 ;
923 [label="X[1] <= 24.5\nentropy = 0.5226\nsamples = 17\nvalue = [15, 2]"] ;
922 -> 923 ;
924 [label="X[1] <= 23.165\nentropy = 0.9183\nsamples = 6\nvalue = [4, 2]"] ;
923 -> 924 ;
925 [label="entropy = 0.0\nsamples = 4\nvalue = [4, 0]"] ;
924 -> 925 ;
926 [label="entropy = 0.0\nsamples = 2\nvalue = [0, 2]"] ;
924 -> 926 ;
927 [label="entropy = 0.0\nsamples = 11\nvalue = [11, 0]"] ;
923 -> 927 ;
928 [label="entropy = 0.0\nsamples = 1\nvalue = [0, 1]"] ;
922 -> 928 ;
929 [label="entropy = 0.0\nsamples = 5\nvalue = [0, 5]"] ;
919 -> 929 ;
930 [label="X[4] <= 271.5\nentropy = 0.7608\nsamples = 59\nvalue = [46, 13]"] ;
842 -> 930 ;
931 [label="X[2] <= 0.165\nentropy = 0.4798\nsamples = 29\nvalue = [26, 3]"] ;
930 -> 931 ;
932 [label="X[1] <= 8.835\nentropy = 0.9183\nsamples = 3\nvalue = [1, 2]"] ;
931 -> 932 ;
933 [label="entropy = 0.0\nsamples = 2\nvalue = [0, 2]"] ;
932 -> 933 ;
934 [label="entropy = 0.0\nsamples = 1\nvalue = [1, 0]"] ;
932 -> 934 ;
935 [label="X[2] <= 10.335\nentropy = 0.2352\nsamples = 26\nvalue = [25, 1]"] ;
931 -> 935 ;
936 [label="entropy = 0.0\nsamples = 23\nvalue = [23, 0]"] ;
935 -> 936 ;
937 [label="X[2] <= 12.0\nentropy = 0.9183\nsamples = 3\nvalue = [2, 1]"] ;
935 -> 937 ;
938 [label="entropy = 0.0\nsamples = 1\nvalue = [0, 1]"] ;
937 -> 938 ;
939 [label="entropy = 0.0\nsamples = 2\nvalue = [2, 0]"] ;
937 -> 939 ;
940 [label="X[0] <= 57.57\nentropy = 0.9183\nsamples = 30\nvalue = [20, 10]"] ;
930 -> 940 ;
941 [label="entropy = 0.0\nsamples = 3\nvalue = [0, 3]"] ;
940 -> 941 ;
942 [label="X[1] <= 15.335\nentropy = 0.8256\nsamples = 27\nvalue = [20, 7]"] ;
940 -> 942 ;
943 [label="X[2] <= 4.5\nentropy = 0.3712\nsamples = 14\nvalue = [13, 1]"] ;
942 -> 943 ;
944 [label="entropy = 0.0\nsamples = 10\nvalue = [10, 0]"] ;
943 -> 944 ;
945 [label="X[2] <= 5.5\nentropy = 0.8113\nsamples = 4\nvalue = [3, 1]"] ;
943 -> 945 ;
946 [label="entropy = 0.0\nsamples = 1\nvalue = [0, 1]"] ;
945 -> 946 ;
947 [label="entropy = 0.0\nsamples = 3\nvalue = [3, 0]"] ;
945 -> 947 ;
948 [label="X[0] <= 62.255\nentropy = 0.9957\nsamples = 13\nvalue = [7, 6]"] ;
942 -> 948 ;
949 [label="entropy = 0.0\nsamples = 2\nvalue = [0, 2]"] ;
948 -> 949 ;
950 [label="X[0] <= 66.79\nentropy = 0.9457\nsamples = 11\nvalue = [7, 4]"] ;
948 -> 950 ;
951 [label="entropy = 0.0\nsamples = 4\nvalue = [4, 0]"] ;
950 -> 951 ;
952 [label="X[3] <= 9.5\nentropy = 0.9852\nsamples = 7\nvalue = [3, 4]"] ;
950 -> 952 ;
953 [label="entropy = 0.0\nsamples = 3\nvalue = [0, 3]"] ;
952 -> 953 ;
954 [label="X[4] <= 299.5\nentropy = 0.8113\nsamples = 4\nvalue = [3, 1]"] ;
952 -> 954 ;
955 [label="entropy = 0.0\nsamples = 3\nvalue = [3, 0]"] ;
954 -> 955 ;
956 [label="entropy = 0.0\nsamples = 1\nvalue = [0, 1]"] ;
954 -> 956 ;
957 [label="entropy = 0.0\nsamples = 8\nvalue = [8, 0]"] ;
521 -> 957 ;
958 [label="entropy = 0.0\nsamples = 10\nvalue = [10, 0]"] ;
520 -> 958 ;
959 [label="X[0] <= 34.97\nentropy = 0.9417\nsamples = 379\nvalue = [243, 136]"] ;
519 -> 959 ;
960 [label="X[4] <= 241.5\nentropy = 0.9544\nsamples = 16\nvalue = [6, 10]"] ;
959 -> 960 ;
961 [label="X[0] <= 33.45\nentropy = 0.5436\nsamples = 8\nvalue = [1, 7]"] ;
960 -> 961 ;
962 [label="entropy = 0.0\nsamples = 5\nvalue = [0, 5]"] ;
961 -> 962 ;
963 [label="X[4] <= 191.0\nentropy = 0.9183\nsamples = 3\nvalue = [1, 2]"] ;
961 -> 963 ;
964 [label="entropy = 0.0\nsamples = 1\nvalue = [1, 0]"] ;
963 -> 964 ;
965 [label="entropy = 0.0\nsamples = 2\nvalue = [0, 2]"] ;
963 -> 965 ;
966 [label="X[1] <= 32.0\nentropy = 0.9544\nsamples = 8\nvalue = [5, 3]"] ;
960 -> 966 ;
967 [label="entropy = 0.0\nsamples = 2\nvalue = [0, 2]"] ;
966 -> 967 ;
968 [label="X[6] <= 0.5\nentropy = 0.65\nsamples = 6\nvalue = [5, 1]"] ;
966 -> 968 ;
969 [label="entropy = 0.0\nsamples = 5\nvalue = [5, 0]"] ;
968 -> 969 ;
970 [label="entropy = 0.0\nsamples = 1\nvalue = [0, 1]"] ;
968 -> 970 ;
971 [label="X[4] <= 183.5\nentropy = 0.9315\nsamples = 363\nvalue = [237, 126]"] ;
959 -> 971 ;
972 [label="X[4] <= 91.0\nentropy = 0.9899\nsamples = 93\nvalue = [52, 41]"] ;
971 -> 972 ;
973 [label="X[2] <= 20.0\nentropy = 0.9183\nsamples = 48\nvalue = [32, 16]"] ;
972 -> 973 ;
974 [label="X[4] <= 81.5\nentropy = 0.9991\nsamples = 29\nvalue = [15, 14]"] ;
973 -> 974 ;
975 [label="X[2] <= 1.5\nentropy = 0.9799\nsamples = 24\nvalue = [10, 14]"] ;
974 -> 975 ;
976 [label="entropy = 0.0\nsamples = 3\nvalue = [3, 0]"] ;
975 -> 976 ;
977 [label="X[4] <= 54.0\nentropy = 0.9183\nsamples = 21\nvalue = [7, 14]"] ;
975 -> 977 ;
978 [label="X[1] <= 34.165\nentropy = 0.9887\nsamples = 16\nvalue = [7, 9]"] ;
977 -> 978 ;
979 [label="entropy = 0.0\nsamples = 3\nvalue = [3, 0]"] ;
978 -> 979 ;
980 [label="X[4] <= 45.0\nentropy = 0.8905\nsamples = 13\nvalue = [4, 9]"] ;
978 -> 980 ;
981 [label="X[1] <= 36.0\nentropy = 0.469\nsamples = 10\nvalue = [1, 9]"] ;
980 -> 981 ;
982 [label="X[0] <= 44.635\nentropy = 1.0\nsamples = 2\nvalue = [1, 1]"] ;
981 -> 982 ;
983 [label="entropy = 0.0\nsamples = 1\nvalue = [0, 1]"] ;
982 -> 983 ;
984 [label="entropy = 0.0\nsamples = 1\nvalue = [1, 0]"] ;
982 -> 984 ;
985 [label="entropy = 0.0\nsamples = 8\nvalue = [0, 8]"] ;
981 -> 985 ;
986 [label="entropy = 0.0\nsamples = 3\nvalue = [3, 0]"] ;
980 -> 986 ;
987 [label="entropy = 0.0\nsamples = 5\nvalue = [0, 5]"] ;
977 -> 987 ;
988 [label="entropy = 0.0\nsamples = 5\nvalue = [5, 0]"] ;
974 -> 988 ;
989 [label="X[5] <= 0.5\nentropy = 0.4855\nsamples = 19\nvalue = [17, 2]"] ;
973 -> 989 ;
990 [label="entropy = 0.0\nsamples = 1\nvalue = [0, 1]"] ;
989 -> 990 ;
991 [label="X[0] <= 63.11\nentropy = 0.3095\nsamples = 18\nvalue = [17, 1]"] ;
989 -> 991 ;
992 [label="entropy = 0.0\nsamples = 11\nvalue = [11, 0]"] ;
991 -> 992 ;
993 [label="X[4] <= 62.0\nentropy = 0.5917\nsamples = 7\nvalue = [6, 1]"] ;
991 -> 993 ;
994 [label="entropy = 0.0\nsamples = 6\nvalue = [6, 0]"] ;
993 -> 994 ;
995 [label="entropy = 0.0\nsamples = 1\nvalue = [0, 1]"] ;
993 -> 995 ;
996 [label="X[1] <= 34.5\nentropy = 0.9911\nsamples = 45\nvalue = [20, 25]"] ;
972 -> 996 ;
997 [label="entropy = 0.0\nsamples = 5\nvalue = [5, 0]"] ;
996 -> 997 ;
998 [label="X[2] <= 0.5\nentropy = 0.9544\nsamples = 40\nvalue = [15, 25]"] ;
996 -> 998 ;
999 [label="entropy = 0.0\nsamples = 2\nvalue = [2, 0]"] ;
998 -> 999 ;
1000 [label="X[1] <= 78.665\nentropy = 0.9268\nsamples = 38\nvalue = [13, 25]"] ;
998 -> 1000 ;
1001 [label="X[2] <= 3.835\nentropy = 0.8366\nsamples = 30\nvalue = [8, 22]"] ;
1000 -> 1001 ;
1002 [label="entropy = 0.0\nsamples = 6\nvalue = [0, 6]"] ;
1001 -> 1002 ;
1003 [label="X[2] <= 4.165\nentropy = 0.9183\nsamples = 24\nvalue = [8, 16]"] ;
1001 -> 1003 ;
1004 [label="entropy = 0.0\nsamples = 2\nvalue = [2, 0]"] ;
1003 -> 1004 ;
1005 [label="X[1] <= 43.835\nentropy = 0.8454\nsamples = 22\nvalue = [6, 16]"] ;
1003 -> 1005 ;
1006 [label="X[2] <= 22.335\nentropy = 0.9852\nsamples = 7\nvalue = [4, 3]"] ;
1005 -> 1006 ;
1007 [label="X[1] <= 37.0\nentropy = 0.971\nsamples = 5\nvalue = [2, 3]"] ;
1006 -> 1007 ;
1008 [label="entropy = 0.0\nsamples = 1\nvalue = [1, 0]"] ;
1007 -> 1008 ;
1009 [label="X[4] <= 101.0\nentropy = 0.8113\nsamples = 4\nvalue = [1, 3]"] ;
1007 -> 1009 ;
1010 [label="entropy = 0.0\nsamples = 1\nvalue = [1, 0]"] ;
1009 -> 1010 ;
1011 [label="entropy = 0.0\nsamples = 3\nvalue = [0, 3]"] ;
1009 -> 1011 ;
1012 [label="entropy = 0.0\nsamples = 2\nvalue = [2, 0]"] ;
1006 -> 1012 ;
1013 [label="X[6] <= 0.5\nentropy = 0.5665\nsamples = 15\nvalue = [2, 13]"] ;
1005 -> 1013 ;
1014 [label="X[3] <= 6.5\nentropy = 0.3712\nsamples = 14\nvalue = [1, 13]"] ;
1013 -> 1014 ;
1015 [label="X[1] <= 63.0\nentropy = 1.0\nsamples = 2\nvalue = [1, 1]"] ;
1014 -> 1015 ;
1016 [label="entropy = 0.0\nsamples = 1\nvalue = [0, 1]"] ;
1015 -> 1016 ;
1017 [label="entropy = 0.0\nsamples = 1\nvalue = [1, 0]"] ;
1015 -> 1017 ;
1018 [label="entropy = 0.0\nsamples = 12\nvalue = [0, 12]"] ;
1014 -> 1018 ;
1019 [label="entropy = 0.0\nsamples = 1\nvalue = [1, 0]"] ;
1013 -> 1019 ;
1020 [label="X[2] <= 27.665\nentropy = 0.9544\nsamples = 8\nvalue = [5, 3]"] ;
1000 -> 1020 ;
1021 [label="entropy = 0.0\nsamples = 4\nvalue = [4, 0]"] ;
1020 -> 1021 ;
1022 [label="X[1] <= 95.33\nentropy = 0.8113\nsamples = 4\nvalue = [1, 3]"] ;
1020 -> 1022 ;
1023 [label="entropy = 0.0\nsamples = 1\nvalue = [1, 0]"] ;
1022 -> 1023 ;
1024 [label="entropy = 0.0\nsamples = 3\nvalue = [0, 3]"] ;
1022 -> 1024 ;
1025 [label="X[1] <= 30.835\nentropy = 0.8987\nsamples = 270\nvalue = [185, 85]"] ;
971 -> 1025 ;
1026 [label="entropy = 0.0\nsamples = 2\nvalue = [0, 2]"] ;
1025 -> 1026 ;
1027 [label="X[0] <= 35.645\nentropy = 0.8928\nsamples = 268\nvalue = [185, 83]"] ;
1025 -> 1027 ;
1028 [label="entropy = 0.0\nsamples = 6\nvalue = [6, 0]"] ;
1027 -> 1028 ;
1029 [label="X[0] <= 35.84\nentropy = 0.9009\nsamples = 262\nvalue = [179, 83]"] ;
1027 -> 1029 ;
1030 [label="entropy = 0.0\nsamples = 2\nvalue = [0, 2]"] ;
1029 -> 1030 ;
1031 [label="X[1] <= 87.0\nentropy = 0.8949\nsamples = 260\nvalue = [179, 81]"] ;
1029 -> 1031 ;
1032 [label="X[2] <= 36.665\nentropy = 0.8673\nsamples = 225\nvalue = [160, 65]"] ;
1031 -> 1032 ;
1033 [label="X[0] <= 73.23\nentropy = 0.8943\nsamples = 209\nvalue = [144, 65]"] ;
1032 -> 1033 ;
1034 [label="X[0] <= 72.38\nentropy = 0.9029\nsamples = 204\nvalue = [139, 65]"] ;
1033 -> 1034 ;
1035 [label="X[0] <= 66.05\nentropy = 0.8953\nsamples = 202\nvalue = [139, 63]"] ;
1034 -> 1035 ;
1036 [label="X[0] <= 65.05\nentropy = 0.9222\nsamples = 169\nvalue = [112, 57]"] ;
1035 -> 1036 ;
1037 [label="X[1] <= 39.165\nentropy = 0.9078\nsamples = 164\nvalue = [111, 53]"] ;
1036 -> 1037 ;
1038 [label="X[1] <= 38.165\nentropy = 0.9874\nsamples = 53\nvalue = [30, 23]"] ;
1037 -> 1038 ;
1039 [label="X[2] <= 14.665\nentropy = 0.9503\nsamples = 46\nvalue = [29, 17]"] ;
1038 -> 1039 ;
1040 [label="X[0] <= 61.78\nentropy = 0.992\nsamples = 38\nvalue = [21, 17]"] ;
1039 -> 1040 ;
1041 [label="X[1] <= 34.5\nentropy = 0.9993\nsamples = 33\nvalue = [16, 17]"] ;
1040 -> 1041 ;
1042 [label="X[0] <= 56.44\nentropy = 0.8997\nsamples = 19\nvalue = [6, 13]"] ;
1041 -> 1042 ;
1043 [label="X[1] <= 31.665\nentropy = 0.6962\nsamples = 16\nvalue = [3, 13]"] ;
1042 -> 1043 ;
1044 [label="X[0] <= 54.46\nentropy = 0.9852\nsamples = 7\nvalue = [3, 4]"] ;
1043 -> 1044 ;
1045 [label="X[2] <= 7.5\nentropy = 0.971\nsamples = 5\nvalue = [3, 2]"] ;
1044 -> 1045 ;
1046 [label="X[2] <= 3.165\nentropy = 0.9183\nsamples = 3\nvalue = [1, 2]"] ;
1045 -> 1046 ;
1047 [label="entropy = 0.0\nsamples = 1\nvalue = [1, 0]"] ;
1046 -> 1047 ;
1048 [label="entropy = 0.0\nsamples = 2\nvalue = [0, 2]"] ;
1046 -> 1048 ;
1049 [label="entropy = 0.0\nsamples = 2\nvalue = [2, 0]"] ;
1045 -> 1049 ;
1050 [label="entropy = 0.0\nsamples = 2\nvalue = [0, 2]"] ;
1044 -> 1050 ;
1051 [label="entropy = 0.0\nsamples = 9\nvalue = [0, 9]"] ;
1043 -> 1051 ;
1052 [label="entropy = 0.0\nsamples = 3\nvalue = [3, 0]"] ;
1042 -> 1052 ;
1053 [label="X[0] <= 51.595\nentropy = 0.8631\nsamples = 14\nvalue = [10, 4]"] ;
1041 -> 1053 ;
1054 [label="entropy = 0.0\nsamples = 8\nvalue = [8, 0]"] ;
1053 -> 1054 ;
1055 [label="X[4] <= 245.5\nentropy = 0.9183\nsamples = 6\nvalue = [2, 4]"] ;
1053 -> 1055 ;
1056 [label="entropy = 0.0\nsamples = 3\nvalue = [0, 3]"] ;
1055 -> 1056 ;
1057 [label="X[1] <= 36.5\nentropy = 0.9183\nsamples = 3\nvalue = [2, 1]"] ;
1055 -> 1057 ;
1058 [label="entropy = 0.0\nsamples = 2\nvalue = [2, 0]"] ;
1057 -> 1058 ;
1059 [label="entropy = 0.0\nsamples = 1\nvalue = [0, 1]"] ;
1057 -> 1059 ;
1060 [label="entropy = 0.0\nsamples = 5\nvalue = [5, 0]"] ;
1040 -> 1060 ;
1061 [label="entropy = 0.0\nsamples = 8\nvalue = [8, 0]"] ;
1039 -> 1061 ;
1062 [label="X[0] <= 50.67\nentropy = 0.5917\nsamples = 7\nvalue = [1, 6]"] ;
1038 -> 1062 ;
1063 [label="X[0] <= 49.84\nentropy = 1.0\nsamples = 2\nvalue = [1, 1]"] ;
1062 -> 1063 ;
1064 [label="entropy = 0.0\nsamples = 1\nvalue = [0, 1]"] ;
1063 -> 1064 ;
1065 [label="entropy = 0.0\nsamples = 1\nvalue = [1, 0]"] ;
1063 -> 1065 ;
1066 [label="entropy = 0.0\nsamples = 5\nvalue = [0, 5]"] ;
1062 -> 1066 ;
1067 [label="X[2] <= 21.0\nentropy = 0.8419\nsamples = 111\nvalue = [81, 30]"] ;
1037 -> 1067 ;
1068 [label="X[4] <= 194.5\nentropy = 0.7496\nsamples = 84\nvalue = [66, 18]"] ;
1067 -> 1068 ;
1069 [label="entropy = 0.0\nsamples = 8\nvalue = [8, 0]"] ;
1068 -> 1069 ;
1070 [label="X[5] <= 0.5\nentropy = 0.7897\nsamples = 76\nvalue = [58, 18]"] ;
1068 -> 1070 ;
1071 [label="entropy = 0.0\nsamples = 1\nvalue = [0, 1]"] ;
1070 -> 1071 ;
1072 [label="X[6] <= 0.5\nentropy = 0.7722\nsamples = 75\nvalue = [58, 17]"] ;
1070 -> 1072 ;
1073 [label="X[1] <= 56.665\nentropy = 0.7532\nsamples = 74\nvalue = [58, 16]"] ;
1072 -> 1073 ;
1074 [label="X[1] <= 51.83\nentropy = 0.8267\nsamples = 50\nvalue = [37, 13]"] ;
1073 -> 1074 ;
1075 [label="X[4] <= 275.5\nentropy = 0.679\nsamples = 39\nvalue = [32, 7]"] ;
1074 -> 1075 ;
1076 [label="X[0] <= 44.62\nentropy = 0.8113\nsamples = 28\nvalue = [21, 7]"] ;
1075 -> 1076 ;
1077 [label="entropy = 0.0\nsamples = 6\nvalue = [6, 0]"] ;
1076 -> 1077 ;
1078 [label="X[0] <= 62.945\nentropy = 0.9024\nsamples = 22\nvalue = [15, 7]"] ;
1076 -> 1078 ;
1079 [label="X[0] <= 61.435\nentropy = 0.9641\nsamples = 18\nvalue = [11, 7]"] ;
1078 -> 1079 ;
1080 [label="X[1] <= 47.165\nentropy = 0.896\nsamples = 16\nvalue = [11, 5]"] ;
1079 -> 1080 ;
1081 [label="X[4] <= 255.0\nentropy = 0.9799\nsamples = 12\nvalue = [7, 5]"] ;
1080 -> 1081 ;
1082 [label="X[1] <= 40.835\nentropy = 0.8813\nsamples = 10\nvalue = [7, 3]"] ;
1081 -> 1082 ;
1083 [label="entropy = 0.0\nsamples = 4\nvalue = [4, 0]"] ;
1082 -> 1083 ;
1084 [label="X[0] <= 50.645\nentropy = 1.0\nsamples = 6\nvalue = [3, 3]"] ;
1082 -> 1084 ;
1085 [label="entropy = 0.0\nsamples = 2\nvalue = [2, 0]"] ;
1084 -> 1085 ;
1086 [label="X[1] <= 43.83\nentropy = 0.8113\nsamples = 4\nvalue = [1, 3]"] ;
1084 -> 1086 ;
1087 [label="entropy = 0.0\nsamples = 3\nvalue = [0, 3]"] ;
1086 -> 1087 ;
1088 [label="entropy = 0.0\nsamples = 1\nvalue = [1, 0]"] ;
1086 -> 1088 ;
1089 [label="entropy = 0.0\nsamples = 2\nvalue = [0, 2]"] ;
1081 -> 1089 ;
1090 [label="entropy = 0.0\nsamples = 4\nvalue = [4, 0]"] ;
1080 -> 1090 ;
1091 [label="entropy = 0.0\nsamples = 2\nvalue = [0, 2]"] ;
1079 -> 1091 ;
1092 [label="entropy = 0.0\nsamples = 4\nvalue = [4, 0]"] ;
1078 -> 1092 ;
1093 [label="entropy = 0.0\nsamples = 11\nvalue = [11, 0]"] ;
1075 -> 1093 ;
1094 [label="X[4] <= 264.0\nentropy = 0.994\nsamples = 11\nvalue = [5, 6]"] ;
1074 -> 1094 ;
1095 [label="X[2] <= 13.5\nentropy = 0.9544\nsamples = 8\nvalue = [5, 3]"] ;
1094 -> 1095 ;
1096 [label="X[0] <= 58.555\nentropy = 1.0\nsamples = 6\nvalue = [3, 3]"] ;
1095 -> 1096 ;
1097 [label="X[4] <= 214.0\nentropy = 0.8113\nsamples = 4\nvalue = [3, 1]"] ;
1096 -> 1097 ;
1098 [label="entropy = 0.0\nsamples = 1\nvalue = [0, 1]"] ;
1097 -> 1098 ;
1099 [label="entropy = 0.0\nsamples = 3\nvalue = [3, 0]"] ;
1097 -> 1099 ;
1100 [label="entropy = 0.0\nsamples = 2\nvalue = [0, 2]"] ;
1096 -> 1100 ;
1101 [label="entropy = 0.0\nsamples = 2\nvalue = [2, 0]"] ;
1095 -> 1101 ;
1102 [label="entropy = 0.0\nsamples = 3\nvalue = [0, 3]"] ;
1094 -> 1102 ;
1103 [label="X[0] <= 38.145\nentropy = 0.5436\nsamples = 24\nvalue = [21, 3]"] ;
1073 -> 1103 ;
1104 [label="entropy = 0.0\nsamples = 1\nvalue = [0, 1]"] ;
1103 -> 1104 ;
1105 [label="X[2] <= 14.33\nentropy = 0.4262\nsamples = 23\nvalue = [21, 2]"] ;
1103 -> 1105 ;
1106 [label="entropy = 0.0\nsamples = 14\nvalue = [14, 0]"] ;
1105 -> 1106 ;
1107 [label="X[2] <= 16.5\nentropy = 0.7642\nsamples = 9\nvalue = [7, 2]"] ;
1105 -> 1107 ;
1108 [label="X[0] <= 58.29\nentropy = 1.0\nsamples = 4\nvalue = [2, 2]"] ;
1107 -> 1108 ;
1109 [label="entropy = 0.0\nsamples = 2\nvalue = [0, 2]"] ;
1108 -> 1109 ;
1110 [label="entropy = 0.0\nsamples = 2\nvalue = [2, 0]"] ;
1108 -> 1110 ;
1111 [label="entropy = 0.0\nsamples = 5\nvalue = [5, 0]"] ;
1107 -> 1111 ;
1112 [label="entropy = 0.0\nsamples = 1\nvalue = [0, 1]"] ;
1072 -> 1112 ;
1113 [label="X[1] <= 62.0\nentropy = 0.9911\nsamples = 27\nvalue = [15, 12]"] ;
1067 -> 1113 ;
1114 [label="X[0] <= 53.515\nentropy = 0.896\nsamples = 16\nvalue = [11, 5]"] ;
1113 -> 1114 ;
1115 [label="X[1] <= 48.665\nentropy = 1.0\nsamples = 10\nvalue = [5, 5]"] ;
1114 -> 1115 ;
1116 [label="entropy = 0.0\nsamples = 3\nvalue = [0, 3]"] ;
1115 -> 1116 ;
1117 [label="X[2] <= 29.0\nentropy = 0.8631\nsamples = 7\nvalue = [5, 2]"] ;
1115 -> 1117 ;
1118 [label="X[4] <= 250.0\nentropy = 0.9183\nsamples = 3\nvalue = [1, 2]"] ;
1117 -> 1118 ;
1119 [label="entropy = 0.0\nsamples = 2\nvalue = [0, 2]"] ;
1118 -> 1119 ;
1120 [label="entropy = 0.0\nsamples = 1\nvalue = [1, 0]"] ;
1118 -> 1120 ;
1121 [label="entropy = 0.0\nsamples = 4\nvalue = [4, 0]"] ;
1117 -> 1121 ;
1122 [label="entropy = 0.0\nsamples = 6\nvalue = [6, 0]"] ;
1114 -> 1122 ;
1123 [label="X[4] <= 277.5\nentropy = 0.9457\nsamples = 11\nvalue = [4, 7]"] ;
1113 -> 1123 ;
1124 [label="X[4] <= 243.5\nentropy = 0.7642\nsamples = 9\nvalue = [2, 7]"] ;
1123 -> 1124 ;
1125 [label="X[1] <= 67.5\nentropy = 0.971\nsamples = 5\nvalue = [2, 3]"] ;
1124 -> 1125 ;
1126 [label="entropy = 0.0\nsamples = 2\nvalue = [0, 2]"] ;
1125 -> 1126 ;
1127 [label="X[2] <= 34.0\nentropy = 0.9183\nsamples = 3\nvalue = [2, 1]"] ;
1125 -> 1127 ;
1128 [label="entropy = 0.0\nsamples = 2\nvalue = [2, 0]"] ;
1127 -> 1128 ;
1129 [label="entropy = 0.0\nsamples = 1\nvalue = [0, 1]"] ;
1127 -> 1129 ;
1130 [label="entropy = 0.0\nsamples = 4\nvalue = [0, 4]"] ;
1124 -> 1130 ;
1131 [label="entropy = 0.0\nsamples = 2\nvalue = [2, 0]"] ;
1123 -> 1131 ;
1132 [label="X[2] <= 32.335\nentropy = 0.7219\nsamples = 5\nvalue = [1, 4]"] ;
1036 -> 1132 ;
1133 [label="entropy = 0.0\nsamples = 4\nvalue = [0, 4]"] ;
1132 -> 1133 ;
1134 [label="entropy = 0.0\nsamples = 1\nvalue = [1, 0]"] ;
1132 -> 1134 ;
1135 [label="X[0] <= 69.195\nentropy = 0.684\nsamples = 33\nvalue = [27, 6]"] ;
1035 -> 1135 ;
1136 [label="X[4] <= 188.5\nentropy = 0.3095\nsamples = 18\nvalue = [17, 1]"] ;
1135 -> 1136 ;
1137 [label="X[4] <= 186.5\nentropy = 0.9183\nsamples = 3\nvalue = [2, 1]"] ;
1136 -> 1137 ;
1138 [label="entropy = 0.0\nsamples = 2\nvalue = [2, 0]"] ;
1137 -> 1138 ;
1139 [label="entropy = 0.0\nsamples = 1\nvalue = [0, 1]"] ;
1137 -> 1139 ;
1140 [label="entropy = 0.0\nsamples = 15\nvalue = [15, 0]"] ;
1136 -> 1140 ;
1141 [label="X[2] <= 11.5\nentropy = 0.9183\nsamples = 15\nvalue = [10, 5]"] ;
1135 -> 1141 ;
1142 [label="X[1] <= 35.0\nentropy = 1.0\nsamples = 10\nvalue = [5, 5]"] ;
1141 -> 1142 ;
1143 [label="entropy = 0.0\nsamples = 3\nvalue = [3, 0]"] ;
1142 -> 1143 ;
1144 [label="X[0] <= 71.845\nentropy = 0.8631\nsamples = 7\nvalue = [2, 5]"] ;
1142 -> 1144 ;
1145 [label="entropy = 0.0\nsamples = 5\nvalue = [0, 5]"] ;
1144 -> 1145 ;
1146 [label="entropy = 0.0\nsamples = 2\nvalue = [2, 0]"] ;
1144 -> 1146 ;
1147 [label="entropy = 0.0\nsamples = 5\nvalue = [5, 0]"] ;
1141 -> 1147 ;
1148 [label="entropy = 0.0\nsamples = 2\nvalue = [0, 2]"] ;
1034 -> 1148 ;
1149 [label="entropy = 0.0\nsamples = 5\nvalue = [5, 0]"] ;
1033 -> 1149 ;
1150 [label="entropy = 0.0\nsamples = 16\nvalue = [16, 0]"] ;
1032 -> 1150 ;
1151 [label="X[4] <= 195.0\nentropy = 0.9947\nsamples = 35\nvalue = [19, 16]"] ;
1031 -> 1151 ;
1152 [label="entropy = 0.0\nsamples = 7\nvalue = [0, 7]"] ;
1151 -> 1152 ;
1153 [label="X[1] <= 108.835\nentropy = 0.9059\nsamples = 28\nvalue = [19, 9]"] ;
1151 -> 1153 ;
1154 [label="X[4] <= 208.0\nentropy = 1.0\nsamples = 16\nvalue = [8, 8]"] ;
1153 -> 1154 ;
1155 [label="entropy = 0.0\nsamples = 3\nvalue = [0, 3]"] ;
1154 -> 1155 ;
1156 [label="X[1] <= 94.67\nentropy = 0.9612\nsamples = 13\nvalue = [8, 5]"] ;
1154 -> 1156 ;
1157 [label="X[4] <= 296.0\nentropy = 0.65\nsamples = 6\nvalue = [5, 1]"] ;
1156 -> 1157 ;
1158 [label="entropy = 0.0\nsamples = 5\nvalue = [5, 0]"] ;
1157 -> 1158 ;
1159 [label="entropy = 0.0\nsamples = 1\nvalue = [0, 1]"] ;
1157 -> 1159 ;
1160 [label="X[2] <= 35.17\nentropy = 0.9852\nsamples = 7\nvalue = [3, 4]"] ;
1156 -> 1160 ;
1161 [label="entropy = 0.0\nsamples = 2\nvalue = [2, 0]"] ;
1160 -> 1161 ;
1162 [label="X[4] <= 281.0\nentropy = 0.7219\nsamples = 5\nvalue = [1, 4]"] ;
1160 -> 1162 ;
1163 [label="entropy = 0.0\nsamples = 4\nvalue = [0, 4]"] ;
1162 -> 1163 ;
1164 [label="entropy = 0.0\nsamples = 1\nvalue = [1, 0]"] ;
1162 -> 1164 ;
1165 [label="X[1] <= 133.5\nentropy = 0.4138\nsamples = 12\nvalue = [11, 1]"] ;
1153 -> 1165 ;
1166 [label="entropy = 0.0\nsamples = 10\nvalue = [10, 0]"] ;
1165 -> 1166 ;
1167 [label="X[1] <= 140.5\nentropy = 1.0\nsamples = 2\nvalue = [1, 1]"] ;
1165 -> 1167 ;
1168 [label="entropy = 0.0\nsamples = 1\nvalue = [0, 1]"] ;
1167 -> 1168 ;
1169 [label="entropy = 0.0\nsamples = 1\nvalue = [1, 0]"] ;
1167 -> 1169 ;
1170 [label="entropy = 0.0\nsamples = 3\nvalue = [0, 3]"] ;
518 -> 1170 ;
1171 [label="X[4] <= 279.0\nentropy = 0.5665\nsamples = 45\nvalue = [39, 6]"] ;
363 -> 1171 ;
1172 [label="X[0] <= 60.07\nentropy = 0.4537\nsamples = 42\nvalue = [38, 4]"] ;
1171 -> 1172 ;
1173 [label="X[7] <= 0.5\nentropy = 0.2056\nsamples = 31\nvalue = [30, 1]"] ;
1172 -> 1173 ;
1174 [label="entropy = 0.0\nsamples = 25\nvalue = [25, 0]"] ;
1173 -> 1174 ;
1175 [label="X[1] <= 5.0\nentropy = 0.65\nsamples = 6\nvalue = [5, 1]"] ;
1173 -> 1175 ;
1176 [label="entropy = 0.0\nsamples = 3\nvalue = [3, 0]"] ;
1175 -> 1176 ;
1177 [label="X[4] <= 193.0\nentropy = 0.9183\nsamples = 3\nvalue = [2, 1]"] ;
1175 -> 1177 ;
1178 [label="entropy = 0.0\nsamples = 2\nvalue = [2, 0]"] ;
1177 -> 1178 ;
1179 [label="entropy = 0.0\nsamples = 1\nvalue = [0, 1]"] ;
1177 -> 1179 ;
1180 [label="X[6] <= 0.5\nentropy = 0.8454\nsamples = 11\nvalue = [8, 3]"] ;
1172 -> 1180 ;
1181 [label="entropy = 0.0\nsamples = 5\nvalue = [5, 0]"] ;
1180 -> 1181 ;
1182 [label="X[1] <= 11.835\nentropy = 1.0\nsamples = 6\nvalue = [3, 3]"] ;
1180 -> 1182 ;
1183 [label="X[3] <= 7.5\nentropy = 0.8113\nsamples = 4\nvalue = [3, 1]"] ;
1182 -> 1183 ;
1184 [label="entropy = 0.0\nsamples = 3\nvalue = [3, 0]"] ;
1183 -> 1184 ;
1185 [label="entropy = 0.0\nsamples = 1\nvalue = [0, 1]"] ;
1183 -> 1185 ;
1186 [label="entropy = 0.0\nsamples = 2\nvalue = [0, 2]"] ;
1182 -> 1186 ;
1187 [label="X[7] <= 0.5\nentropy = 0.9183\nsamples = 3\nvalue = [1, 2]"] ;
1171 -> 1187 ;
1188 [label="entropy = 0.0\nsamples = 2\nvalue = [0, 2]"] ;
1187 -> 1188 ;
1189 [label="entropy = 0.0\nsamples = 1\nvalue = [1, 0]"] ;
1187 -> 1189 ;
1190 [label="X[1] <= 255.665\nentropy = 0.7219\nsamples = 10\nvalue = [2, 8]"] ;
362 -> 1190 ;
1191 [label="X[4] <= 78.0\nentropy = 0.5033\nsamples = 9\nvalue = [1, 8]"] ;
1190 -> 1191 ;
1192 [label="X[4] <= 26.0\nentropy = 0.9183\nsamples = 3\nvalue = [1, 2]"] ;
1191 -> 1192 ;
1193 [label="entropy = 0.0\nsamples = 2\nvalue = [0, 2]"] ;
1192 -> 1193 ;
1194 [label="entropy = 0.0\nsamples = 1\nvalue = [1, 0]"] ;
1192 -> 1194 ;
1195 [label="entropy = 0.0\nsamples = 6\nvalue = [0, 6]"] ;
1191 -> 1195 ;
1196 [label="entropy = 0.0\nsamples = 1\nvalue = [1, 0]"] ;
1190 -> 1196 ;
1197 [label="X[5] <= 0.5\nentropy = 0.8213\nsamples = 2063\nvalue = [1534, 529]"] ;
361 -> 1197 ;
1198 [label="X[2] <= 20.5\nentropy = 1.0\nsamples = 40\nvalue = [20, 20]"] ;
1197 -> 1198 ;
1199 [label="X[1] <= 26.83\nentropy = 0.998\nsamples = 38\nvalue = [20, 18]"] ;
1198 -> 1199 ;
1200 [label="X[2] <= 5.165\nentropy = 0.9975\nsamples = 34\nvalue = [16, 18]"] ;
1199 -> 1200 ;
1201 [label="X[1] <= 11.335\nentropy = 0.9812\nsamples = 31\nvalue = [13, 18]"] ;
1200 -> 1201 ;
1202 [label="X[1] <= 6.0\nentropy = 0.9988\nsamples = 25\nvalue = [13, 12]"] ;
1201 -> 1202 ;
1203 [label="X[4] <= 241.5\nentropy = 0.9852\nsamples = 21\nvalue = [9, 12]"] ;
1202 -> 1203 ;
1204 [label="entropy = 0.0\nsamples = 2\nvalue = [2, 0]"] ;
1203 -> 1204 ;
1205 [label="X[4] <= 257.0\nentropy = 0.9495\nsamples = 19\nvalue = [7, 12]"] ;
1203 -> 1205 ;
1206 [label="entropy = 0.0\nsamples = 4\nvalue = [0, 4]"] ;
1205 -> 1206 ;
1207 [label="X[4] <= 262.5\nentropy = 0.9968\nsamples = 15\nvalue = [7, 8]"] ;
1205 -> 1207 ;
1208 [label="entropy = 0.0\nsamples = 2\nvalue = [2, 0]"] ;
1207 -> 1208 ;
1209 [label="X[1] <= 0.165\nentropy = 0.9612\nsamples = 13\nvalue = [5, 8]"] ;
1207 -> 1209 ;
1210 [label="X[0] <= 32.57\nentropy = 0.9852\nsamples = 7\nvalue = [4, 3]"] ;
1209 -> 1210 ;
1211 [label="entropy = 0.0\nsamples = 2\nvalue = [2, 0]"] ;
1210 -> 1211 ;
1212 [label="X[0] <= 45.495\nentropy = 0.971\nsamples = 5\nvalue = [2, 3]"] ;
1210 -> 1212 ;
1213 [label="entropy = 0.0\nsamples = 2\nvalue = [0, 2]"] ;
1212 -> 1213 ;
1214 [label="X[4] <= 292.5\nentropy = 0.9183\nsamples = 3\nvalue = [2, 1]"] ;
1212 -> 1214 ;
1215 [label="entropy = 0.0\nsamples = 1\nvalue = [0, 1]"] ;
1214 -> 1215 ;
1216 [label="entropy = 0.0\nsamples = 2\nvalue = [2, 0]"] ;
1214 -> 1216 ;
1217 [label="X[2] <= 1.0\nentropy = 0.65\nsamples = 6\nvalue = [1, 5]"] ;
1209 -> 1217 ;
1218 [label="entropy = 0.0\nsamples = 5\nvalue = [0, 5]"] ;
1217 -> 1218 ;
1219 [label="entropy = 0.0\nsamples = 1\nvalue = [1, 0]"] ;
1217 -> 1219 ;
